458 100
充电枪 -0.0036348007 0.001777051 -0.0031252694 0.0006292658 -0.0024080623 0.0021369 0.0027284117 0.0021428135 0.0016393387 0.004603277 -0.0010269772 0.0046812897 -0.003390256 4.151771e-05 0.0039124023 0.0042528566 -0.0007983297 -0.0038823986 -0.0001787122 -0.001240802 0.0030291216 -0.0010435664 -0.0049184174 -0.004792861 0.0044184583 0.0019666238 -0.0040712873 0.0024650916 0.0031286266 0.0010665234 0.0010949634 0.0013080052 0.0041504996 -0.0010093169 0.002773403 0.0049012476 -0.0010047124 0.0037184113 0.00027433684 -0.004556272 -0.002959537 0.0038521425 0.00047746164 0.0013500488 -0.004415193 -0.0044414736 0.0002326671 0.002952628 0.0042381925 0.0026785615 -0.0003603784 -0.0015292334 -0.0013086711 -0.0030609616 1.217039e-05 -0.003882734 -0.002299065 0.002837331 0.0034252715 -0.00026167027 0.0047182534 0.0005365405 0.000751137 -0.0031708053 -0.003618295 0.002675605 -0.00018373785 0.003844963 -0.0018579001 -0.004952642 -0.0002142566 0.004401707 -0.0030726632 -0.0015470128 0.0008465336 -0.0009686428 -0.002396279 0.004998645 -0.0015988112 -0.0010559799 -0.0013862397 0.0025865398 0.0020656646 0.0047763144 1.2193158e-06 0.0026774192 -0.00041155855 -0.0037367397 -0.0040884325 0.0012515488 0.001504553 -0.004813758 -0.004179768 -0.0043861545 -0.0041958885 -0.004041781 0.003657086 0.00026102684 -0.00050850294 -0.0042217607
新能源汽车 2.4563058e-05 -0.0026152062 -0.0010059057 -0.002055856 0.0020397794 -0.0045614834 -0.0024962449 -0.00040751146 -0.0025158445 -0.004891746 -0.00060526613 0.0048562833 -0.0038470165 0.0042663175 0.0034884932 0.0021899086 -0.004640012 -0.0019402213 0.004132849 0.0012230542 -0.0027653826 -4.308245e-05 0.0010176128 -0.0043207067 0.00061940483 0.0003897681 -0.003803465 -0.0038021419 -0.0018240107 -0.004680625 0.0034372064 0.0020674774 -0.0033218593 0.0024142826 -0.0039271507 -0.00018960753 0.0017770468 -0.0005515294 -6.9071066e-05 -0.004125583 -0.00249032 0.00063526374 -0.00059840514 0.003853149 0.0021678782 0.0028051634 0.0010947032 -0.0038055708 -0.00065197697 -0.0014035555 -0.0040241787 0.0032756806 -0.0038165518 0.0026917015 0.0035883167 -0.0015591313 -0.0008595117 0.00094747875 -0.0003552992 -0.0007854436 -0.004971021 0.0035301647 0.0049805753 -0.0004595883 0.0035388654 0.001517026 0.0011517811 0.0041970704 0.003763186 -0.0046555507 -0.00027921615 -0.002493067 -0.0026336352 -0.0031176596 -0.0003894266 -0.0030463964 0.0033395698 0.0014135494 0.0004956992 0.0037334356 0.0016587173 -0.0020483313 -0.0041514346 0.0048180767 -0.0044570956 -0.0016227586 -0.0002095585 0.0010261989 0.0028212569 -0.004656101 0.004408012 -0.0039944337 0.002911566 0.00090264756 -0.002854882 -0.001251023 0.0012121106 0.0008617986 -0.0025679697 -0.001925783
离合器 -0.0010728358 -0.0012361213 -0.0038388781 -0.0047964426 -0.002334217 0.003754316 -0.004236114 -0.0011817024 0.0040811854 0.0012736879 0.0049381885 0.0023826293 -0.0015781001 -0.0033530807 0.0013439199 -0.0023160668 -0.003452305 0.0011760483 -0.002219436 -0.0012478771 0.0019482098 -0.0025112603 0.0027632066 0.00031062742 -0.0004890628 0.0006055217 -0.003162795 0.0007671812 -0.0017040427 -0.004234722 0.0036441092 -0.0021295634 -0.00026564408 -0.0009729886 0.0007394548 -0.0039308104 -0.0049862824 -0.0047262246 0.0036807754 -0.0017157868 0.0024361694 0.004345535 0.004574482 0.00030073297 -0.00053251424 -0.0041449326 -0.0027720362 -0.00035435698 -0.003997551 0.0018437391 0.0027727734 0.0036113583 -0.0023754735 0.00075899437 -0.0046217763 0.0032857459 -0.0012980952 -0.0030050732 -0.0015533186 -0.0012261828 -0.00071347994 -0.0040205084 0.0041457345 0.0038083282 0.0016450825 0.0006888037 -0.002794475 -0.0046268576 -0.0028790613 5.3736476e-05 0.0017308317 -0.0028040463 0.004190189 0.0009583088 0.002902328 -0.0015032496 -0.0021232134 -0.0003836818 0.0003532086 -0.0022880605 0.0020597952 -0.0017425194 0.0049585234 0.0046176347 0.00062972616 0.0024425818 -0.0034073899 -0.0022663993 0.004611896 -0.0039935703 -0.0039256946 0.0031208473 0.0028658016 -0.004835025 0.002906985 -0.0018605755 -0.0037665816 -0.0042972243 1.911412e-05 -0.0046596453
电机 -0.004510603 -0.0030146663 0.0032510448 -0.0036798385 -0.0025148923 0.0032881072 -0.00043966854 -0.0017756158 -0.0022406527 -0.0016991409 -0.003956193 0.0038182663 -4.226936e-05 -0.0015823209 0.0025815417 -0.002240886 -0.0039814995 0.0008005476 0.0039968034 0.0037251394 -0.0038818172 -0.0017624794 -0.0032309594 -0.00300203 0.0015240144 0.0016075721 0.004741647 0.0033695789 -0.0046472563 -0.0031771834 -0.0011339299 0.00023004197 0.004066799 -0.003997674 0.00030711165 0.0020321351 -0.0030143578 -0.004165973 0.0045417035 0.0015836371 0.0023202945 0.0048066815 0.004257798 -0.0016908902 -0.0045885243 -0.00050954404 0.0038296657 0.0016135208 -0.0017574355 0.0005233492 -0.0038961247 0.0005779653 -0.0031484615 -0.0017321086 -0.0030005414 -0.002567591 0.004481069 0.0009363124 -0.0013587358 0.0035671405 0.0013068977 -6.635099e-05 0.003777326 -0.0005725793 -0.0029483777 -0.002307864 -0.0028866804 0.0010942281 0.0011428028 -0.0049115284 0.0022967507 -0.0006858175 -0.004639346 0.003618808 -0.00069039187 -0.0020460964 -0.00065340195 0.0031319303 -0.0014952902 -0.0014161606 0.0033738215 -0.004717623 0.00019504986 -0.002697933 -0.0027050239 0.0049439506 0.0027492892 0.0042321202 0.0025878192 -0.0022899872 0.0015956482 0.0035976479 0.0045881798 -0.0031821858 -0.0034697265 0.001977483 0.003631547 0.0019430723 -0.0022210672 -0.0038599428
自动受电刀 0.003453807 -0.004833917 0.00361577 0.0008181394 -0.0029225557 0.004918921 -0.0004950717 -0.002490573 -0.0048151324 -0.004295958 0.0045917733 0.0025088273 0.0036818727 -0.0027743427 0.0011759533 -0.0036033036 -0.0016625084 0.0029916991 0.0040650964 -0.004352687 -0.004764279 0.0048385123 0.0030460178 0.0031143764 0.0029586458 0.0021157793 -0.0017564413 0.00093135814 0.00095879904 0.0042847614 0.00073225296 0.001055712 0.0021030777 -0.0010668176 0.0025858535 0.00029167027 0.002493837 0.0037797582 -0.002671403 0.0020570294 0.0014562368 0.004150299 -0.00480266 -0.0010499187 0.0035691278 0.004197304 -0.00094622164 -0.003039207 -0.0044046566 0.0023259048 -0.0038755473 -0.0018833096 0.0047812345 -0.0049839523 -0.002599934 -0.002230501 0.0012852725 0.0015649425 0.0011883627 -0.0032325436 0.003425383 0.001574897 0.0018569358 0.0014907478 -0.0031198433 0.0013655188 -0.004484701 -0.0034071016 0.0017153041 -0.0020270539 -0.0007914097 0.0018860855 0.0021347953 -0.0044494164 -0.0021099271 -0.0009949099 0.0048556393 0.002401393 -0.0014173366 -0.0016687447 -0.002032783 0.0016875303 -0.0032921385 0.0031009924 0.0033163554 -0.003361925 0.004888506 -0.0047134017 0.0041881977 -0.00024647944 0.0017301638 -0.0025480303 -0.0036821137 -0.0022675602 -0.004502318 0.004496874 -0.0041142586 0.0039527174 -0.0032864546 -0.00069173705
驱动电机 -0.0006867594 0.00036901134 -0.0007673493 -0.0034732013 0.0012342769 0.0049128397 0.001337462 -0.00034267316 -0.00021651092 -0.002114795 0.00037394476 -0.003040864 -0.0041251797 -0.0027631808 -0.0022878097 0.00217103 0.0028993443 0.0006494696 -0.00020569237 0.003494175 -0.0006154631 0.0013006713 -0.0012657059 -0.004366617 0.00317287 0.003916772 -0.00048034464 -0.0032916158 0.002852904 -0.0022674089 -0.002939835 -0.0032807887 -0.0049000685 -0.003429596 -0.003650054 0.003284061 -0.004857548 -0.0017238038 0.00069983077 0.0038904226 -0.0012901014 -0.0017725897 0.00042970816 0.0048770956 -0.00434153 0.0027095885 -0.0033292077 0.0015974118 -0.003987466 0.00031285992 -0.0013856741 -0.0017708126 -0.002174993 0.0030072667 0.003485417 0.0047966805 -0.0016704281 -0.00017494353 0.0046273526 -0.0018899245 -0.004411998 0.00068376656 0.0024625913 -0.003963825 -0.0035950202 -0.00029419057 0.0022444173 -0.0046623773 0.001931204 -0.0010081746 0.0013586935 0.0047610435 -0.0032219016 0.004634865 0.0010018056 -0.0028529593 0.0028681983 -0.0016877926 -0.0014806682 -0.00084703695 0.004087956 0.0011748056 0.0025014137 4.6090914e-05 -0.0032835803 -0.0027735606 -0.0033383882 -0.004337337 0.0012501772 0.0017318092 -0.0012735392 -0.004860767 0.003593922 -0.0029875275 0.0008825626 -0.00026398906 -0.0017213152 -0.00029655144 -0.0036214376 -0.0032713164
发动机 -0.003940231 -0.0042591584 -0.0028520217 0.004036558 0.001755889 0.0024575458 0.0024209828 -0.0043560364 -0.0007144868 -0.0030309383 0.002437596 -0.0030900426 0.0006468956 -0.0043233614 -0.0034554023 -0.0023307395 -7.061762e-05 0.004522021 0.0026690096 0.0031200498 -0.003214985 0.004558442 0.0025845547 0.00024121003 0.00047606142 -0.0040031923 -0.0044187442 -0.0011064281 -0.0017345961 -0.0045027365 0.0037375027 -0.0018955258 -0.0008004108 -0.0006872442 0.0047821766 0.0022123975 -0.0021836236 0.00230021 0.00458338 0.00019531578 -0.00036960974 -0.00043012903 -0.0032264083 -0.00043986196 -0.0013271475 -0.002999637 -0.0007738113 -9.573637e-05 -0.0019061543 -0.002032835 0.00030069018 -0.003288466 0.0007466113 -0.0034478705 -0.0015271283 0.0017946683 0.0008170105 -0.0009821329 -0.00026458388 0.0018017326 -0.00034137693 0.0038632362 6.2769104e-05 -0.0018025229 0.0021362875 0.0005814681 0.0006545765 -0.001176481 -0.0036338822 0.002935748 -0.001948057 0.0021952994 -0.0032207558 -0.0038087978 0.0037439454 0.00058127 0.00018655644 0.00398292 0.00016459978 -9.9123354e-05 0.003953544 -0.0012527307 -0.0043375385 0.0040099486 0.004264699 -0.0049534068 0.00025318176 0.0019479076 0.004715613 0.00021379549 0.0031790207 -0.0023910182 0.0030036478 -0.0008792216 -0.0021477994 0.004139127 0.0032669276 -0.0023252252 -0.0027464745 -0.004447641
锁紧槽 -0.0040619276 0.0049884846 0.0040387656 -0.004514249 -0.0029661986 0.003955378 -0.0016843249 -0.0010942542 0.0005368308 -0.0021818061 -0.0024816862 0.0011848214 -0.0033893106 -0.0018244142 -2.4577244e-05 -0.0015573102 0.00058045576 -0.0008878975 0.00060533057 -0.00015389957 0.00036039436 0.0035363717 0.0034829453 -0.0016348673 -0.0048511387 0.00016964685 0.0038595828 -0.00015657055 -0.0028898004 0.0018368908 -0.003920931 -0.003083162 0.0017975883 -0.0027770798 -0.0023818437 -0.0046922173 0.0036605855 -0.0046233833 -0.0009036991 0.004751435 -0.0027730905 0.0004952352 -0.0031659007 -0.0014170825 0.0011801302 -0.0017499957 0.0023690257 -0.0016608321 0.0019090201 0.004409956 0.0011040984 0.0018148606 0.0041032783 0.0030194225 -0.0032739027 -0.004962941 0.0015035144 -0.0043094917 -0.002559561 0.0017891981 -0.0029630573 -0.0037169182 -0.002401262 -0.0039471886 0.0008304718 -0.00065998716 -0.00081312296 -0.0034777327 -0.0043253656 -0.0037762027 -0.0026715714 -0.0011260493 0.0036896588 0.0034903637 -0.0017977317 0.0033963143 -1.7107905e-05 -0.0014375793 -0.0029944733 0.0022991642 0.0047025504 -0.0014095379 -0.004313502 0.0020298145 -0.0037482434 -0.003828116 -0.0025364684 -0.00089690083 -0.0031350143 0.004031527 0.00031598198 0.0004703344 0.0036307457 0.0014345648 0.0022795536 0.004561242 -0.0039002532 0.0019031367 -0.0049555697 -0.0034190458
锁紧块 0.0023470314 0.0031743809 -0.0021932146 0.0043739667 0.000381031 -0.0006673572 0.0021575699 -0.0043395837 0.0025584507 -0.0012197545 -0.0021199386 -0.00091701245 -0.0019849846 0.0045405724 -0.0013538275 0.0023931407 -2.6240865e-05 0.00073628855 0.00088261714 -0.003615222 -0.00055580394 -0.0047998326 0.000110865905 0.0037500262 -0.0038668031 0.0049425336 0.0017877119 -5.081872e-05 -0.0046107904 -0.0047122873 -0.0006128989 -0.001953119 0.0027754086 -0.001772711 -0.0010477933 0.001910288 -0.0027727985 0.002123271 -0.0018429284 -0.0001507928 -0.0011572142 -0.00014995832 0.0030198442 -0.0032797689 -0.00034423856 -0.00029396144 1.9149242e-05 -0.0029508036 -0.0038975852 -0.002212178 0.0038442195 0.003161747 0.0028994337 0.0033016535 -0.0033098387 -0.0033362408 0.0017299962 0.0017482534 -0.001135086 0.0021870835 -0.003583106 0.004947807 0.004296708 0.0043541086 -0.0017111041 -0.001898584 0.00094813004 -0.0027835649 0.0043309866 -0.002344597 -0.0025744813 0.00060171564 -0.0049107163 0.0027384986 0.0042526023 -0.0007814204 -0.0045141154 0.003495612 0.0037344801 0.0010777643 -0.0036971853 -0.0040185545 0.0010457219 -0.0028904737 0.000688986 0.00446184 0.0016652507 -0.0037020983 0.0023818456 0.0030070783 -0.004054558 -0.0015199345 -0.0013435029 0.0034142684 -0.0029595455 -0.001166173 -0.00053619413 0.0039683767 0.0011217168 0.0047235806
齿型轮 -0.0038572038 0.0008345437 -0.0036598186 0.0007030733 0.0013436809 -0.0020739704 -0.00040677525 0.0046033124 0.004786181 0.004538358 -0.0015682246 0.0002063414 -0.0006073684 0.0014118104 0.0030788283 0.0020152018 0.002737205 -0.003169901 0.0029010943 0.0044305255 -0.0018416406 0.0006720095 0.00057266763 0.0009189498 0.0037898852 -0.004915982 0.0016355672 0.0047665844 -0.0015354074 -0.0012831016 0.00049213547 -0.0020973843 0.004081149 -0.0004317466 0.003574929 -0.003860898 -0.0023365093 -0.001661414 0.0036607408 0.0013919584 -0.0007067593 0.0043572015 -0.0015170753 -0.0006843283 0.003014808 0.0025583336 0.0003189453 -0.0011280896 0.0017320259 -0.0047392286 0.0005952847 0.0003012041 -0.0015421521 0.0016202746 -0.0022789696 -0.00020350395 0.0009230649 -0.0003014675 -0.003256272 -0.0035919833 0.0014622969 0.004723346 0.0014992959 -0.0039935755 0.0012540867 -0.0027643223 -0.0033376045 0.0027731496 -0.0023929786 0.0034513716 -0.0018821142 -0.0017289642 -0.0045587975 -0.00032545294 -0.002212411 0.0034821744 -0.0048921397 -0.003941912 0.0026241532 -0.00065484864 -0.000325781 -0.0043354384 0.0031982365 0.003086971 0.0037041886 0.0025772615 0.004234696 -0.0018791091 -0.0018268878 -0.0048946366 -0.0011344791 0.0020565535 -0.0029348438 -0.004190118 0.003117429 0.0017011536 0.0038068336 -0.0026356142 0.0013195976 -0.0007989458
滑移槽 -0.0023026976 0.0042625573 0.00010003619 -0.0048086205 0.0019213498 0.00441081 -0.0042033913 0.0024446405 0.0021735528 0.0045964387 0.002998187 -0.0034970695 -0.0048926948 -0.0031777283 0.0023954748 -0.004161423 0.0044776676 -0.0048229825 0.0026766893 -8.491588e-05 -0.00094829174 0.00468563 -0.0021091225 -0.0012328894 5.408865e-05 -0.004343347 -0.0012194031 -0.0001560157 -0.00097400154 0.0042021354 -0.0003498854 0.0044839126 -0.004306185 -0.00019931044 0.0036723872 -0.0027393515 0.0049365154 -0.00070223224 -0.0028521484 0.002924213 -5.4008015e-05 0.0049527087 0.0017341669 -0.00067182636 0.00047358472 -0.0016157422 -0.00097532157 0.00015251107 -0.0043230057 0.0036842853 -0.004155484 -0.0037635337 0.0048928643 0.00043137014 0.0020707948 -0.0022458418 0.0032779058 0.0036826346 0.0030917285 -3.1342537e-05 0.0032181563 -0.0037886584 -0.0011530124 -0.0043341937 0.002560561 0.00037943898 -0.0043015652 0.004251938 -0.0034855574 0.0012733726 0.0036814958 0.0039973366 0.00022200137 0.00069626316 0.0015175474 -0.0013173321 0.0028544655 -0.0017555999 -0.0015166937 -0.0048547667 -0.0018558603 0.0015494253 0.0046573454 -0.00032125306 0.001760884 -0.0043831402 0.0026481638 -0.0011429074 -0.0038829779 -0.004222654 -0.0018026138 -0.00054743775 0.002852278 -0.00083860307 0.0029531359 -0.0023458367 -0.0018838203 0.001518746 -0.0024689343 0.000586764
插槽 4.5269053e-06 -0.0021787172 0.0038933556 0.0014609358 0.004784306 0.0045214947 -8.7875516e-05 0.004765309 0.0023957433 0.004106253 -0.00015413236 -0.0029274188 -0.00080311927 0.0038916238 0.004815875 -0.0025129186 0.003577005 -0.00042011103 0.0024432156 -0.002338902 0.0017819677 -0.0044103824 0.0026846172 0.001119275 0.00016244262 -0.00060709554 -0.0039122254 0.0028393404 0.0009565774 0.0025474643 -0.0016253756 -0.0037832973 -0.0020656139 -0.00431161 0.0024046835 0.0005413431 -0.0017636762 0.0033640466 0.0029283576 0.00026432434 -0.004188381 0.002995312 -0.00074228185 -0.0026564726 -0.004791547 -0.0026918459 0.003784102 0.0029948328 -0.0007326418 0.0045256997 0.00070543244 0.000982967 -0.0022175724 -0.001209487 0.0017671905 -0.0016907394 -0.003919075 -0.0018754067 0.00068068196 2.8261533e-05 0.00358066 -0.001278254 0.0034865092 -0.0031831358 0.0022082294 -0.003239656 0.001099281 -0.002799978 -0.004354895 -0.0018978457 0.002996403 0.001433285 0.002023217 0.0024540413 -0.004426196 -0.0032808385 0.00041863558 0.0006925975 -0.00033282783 -0.0030444441 -0.0033162169 0.002295884 -0.0016406591 -0.001164859 0.00221649 0.00391452 0.0016636897 -0.000223444 -0.0004211847 -0.002764554 0.0045318264 0.0003269946 -0.0030973372 -0.002327725 0.00043166138 -0.00027379944 -0.0003116039 -0.0011424519 -0.0031893472 -0.0006593627
充电部 0.0037293562 -0.004572404 -0.0037752378 -0.0018913567 -0.0016842086 -0.00034635715 -0.00042256672 -0.0033869767 -0.0016768489 0.0019254547 -0.0046878485 -0.00096736004 0.0018950329 0.0007726257 -0.0039396645 -0.0017603504 0.0034103761 0.004505577 0.0018125391 0.0034303968 -0.0026625164 0.00038913055 0.0023710174 -0.0005370429 0.004401984 0.000549905 0.004305013 0.003892053 -0.0030361244 -0.004725993 -0.0022667802 -0.0002201954 0.004773133 -0.003712136 0.0024868834 0.003962789 0.002557823 0.0031889018 0.0044931294 0.004892707 0.002328505 0.003758858 -0.0045477925 -0.001466766 0.0016361084 0.001661846 0.0028569777 -0.00160719 -0.0040888926 0.0027457692 0.0008358524 -0.00032605528 0.0002470977 0.0038904932 0.000859353 0.00022873096 -0.002384503 0.0019814742 -0.0025723835 -0.0006153895 -3.1947493e-05 -0.0043346426 -0.0009618381 -0.0026480008 -0.00029041662 0.0043870844 0.0046510664 0.0010556664 0.00025562206 0.001594273 0.00055194396 -0.0039583617 0.0035840028 0.004003696 -0.00044990063 0.002697121 -0.00019528095 0.0033041937 -0.0010890658 0.000858287 -0.0049455254 3.1969656e-05 0.0011915421 -0.0011718016 -0.003616204 0.00080715574 0.0023755867 0.0036524136 -0.0035507877 -0.0023170933 0.0014976631 -0.0033773982 0.0028174506 0.0032030554 0.0047657774 0.0046789614 -0.0047359127 -0.0048293085 -0.0037952592 -0.00085569854
通口 0.0043687792 -0.0046698195 -0.0002261282 0.0024173064 0.00037323908 0.000510223 0.0015976167 0.0015148179 0.00069041556 0.0025937331 -0.0011222921 -0.0031150477 0.0033247299 0.002895569 -0.0012932211 0.0034417363 0.0039283265 -7.7805154e-05 0.0037586559 0.0040029082 -0.004490242 0.0018514965 -0.0021828855 -0.0016075065 0.0005082317 0.0018196971 0.0023446067 -0.0012479713 -0.0045791934 -0.0011092041 -0.00089657446 -0.00062713283 0.0040589552 0.00078895886 0.0034932776 0.0023563702 -0.00203641 0.00047662543 -0.004808004 0.002868956 0.0005953161 0.004658076 0.0041898214 0.002759533 0.0039675296 0.0036354065 0.004939998 0.0022671062 -0.002475854 0.0036078475 0.00026496657 0.0010345636 0.0014410007 -0.0017359543 0.0038387259 -0.0017002891 0.003539578 -0.0026244344 0.004543736 0.0037298515 0.0031500552 0.0008514501 0.0012855125 -0.0042851567 -0.0032809977 -0.0020797206 0.0019774598 -0.0023115387 -0.004931046 7.380274e-05 0.004970837 -0.0025982852 -0.000769274 -0.0048471154 0.004398306 -0.0011921789 -0.0028449956 -0.001572697 0.00025592832 0.0016668446 0.0034657603 0.0017389399 0.0045192437 0.0006153458 0.0009919719 0.003379433 0.0038402968 -0.00030050636 -0.004039441 -0.0046599503 -0.004398906 0.0012661244 -0.003646735 -0.0039136144 -0.0009930382 -0.0032305198 -0.0018038551 0.0033166346 0.0027728009 0.0049020536
滑槽 -0.001515454 0.00082324253 -0.003766134 -0.0029936242 0.0018755076 0.0049463823 0.0039698724 0.0002591402 -0.00027905306 0.0028260017 -8.34791e-05 -0.0016569867 0.0004575681 -0.0005924578 -0.00087515765 0.0033597457 0.0014570191 -0.0044257585 -0.0016721062 0.004812062 -0.002337221 0.0044272607 -0.0020279887 -0.0033857136 -0.004142547 -0.0031032916 -0.0025380405 -0.0035329983 0.0015342684 0.0028218706 0.002581747 0.0014048861 -0.0021811242 0.0020053503 0.0040809396 0.0031142663 -0.0034141059 -0.002783623 0.0006572396 0.0014676688 0.0030893732 0.004281668 -0.0002992025 0.00427166 -0.00029227854 -0.0036795326 0.0038924501 -0.002853766 0.0033156767 -0.0005221465 0.0023791164 0.0012143374 0.004204688 0.003946039 0.004816357 0.0020512266 -0.004136617 0.0011158602 0.002233166 -0.00378533 0.0011711331 -0.0012423516 -0.0037424327 -0.003941981 0.0011881987 -0.0020212254 -0.004316332 0.0030881097 0.002701879 2.3788638e-05 0.0011235861 0.0027226303 -0.00304292 0.0042840126 -0.0018995978 0.0010671491 0.0018402404 0.004208658 0.0031014588 -0.00062736456 -0.002546957 -0.0039789365 0.00033651126 -0.00018016146 0.0040181996 -0.004521263 -0.001606653 -0.002178686 0.0031629133 0.0042910366 0.0029484555 -0.0036650354 0.002617237 0.00067258097 -0.0013758618 -0.0020981464 -0.00066639826 -0.004808061 0.0007961143 -0.0036360056
滑块 -0.0012761571 -0.0030902529 -0.0032188534 -0.002105868 0.0010812827 -0.0007275618 0.0017049874 0.0022568912 -0.000119876684 0.004929412 0.0015480302 -0.003052537 -0.004403481 0.0020457697 -0.0014493851 0.0042424467 0.0041116322 0.0018090429 0.0004384946 0.0032691166 0.0025202078 0.0021339331 0.0033544702 0.00077660644 0.0025084603 -0.0042069345 -0.002722115 0.0021184543 0.0011217723 -0.0031940169 -0.0014794321 0.0008700613 -0.0014923968 0.0037859739 0.00062430307 -0.0009019495 -0.0045596203 -0.0018451802 -0.004995265 -0.0034838493 0.0020496827 -0.00016265448 0.0011582758 -0.0029503517 0.0011702953 -0.0038286708 -0.0046523763 3.660014e-05 -8.029189e-05 0.0043428238 0.002997385 -0.0005820981 -0.0005036419 -0.0040511545 0.00010625934 0.0016145481 0.00017580441 -0.0009095612 0.002558837 -0.0038477632 0.0015029197 -0.0013954175 -0.000775606 -0.00042665814 -0.004721401 -0.004449688 -0.0038330199 0.00030613292 0.003163503 0.0019301 -0.00014331742 0.0015042769 0.0043980945 -0.0020836596 -0.0016717942 -0.0017162744 0.003641787 0.0037789247 0.003894726 -0.0025534974 -0.0015251843 -0.0037767342 -0.0006021428 -0.0020812366 0.0020227842 0.0017718911 0.0024554865 0.0019751096 0.004783991 0.00048610973 0.003206143 2.4332501e-05 0.003994552 0.0036329217 0.003914975 0.0040437616 -0.0028807581 -0.0012111143 -0.0017674369 0.0037994375
桩体 0.004173783 -0.002512164 -0.0030055735 0.0009843546 0.0014988037 -0.0018725281 0.002339092 -0.0036296784 -0.0034013228 0.0022693141 -0.0012264117 -0.004747435 -0.0040203007 0.0011687004 -0.0037678499 -0.0038365803 -0.0016721585 0.0037051977 0.0012550644 0.00069862936 0.0006480686 0.0027282825 -0.004054017 0.0020785367 0.00439252 0.003549673 0.004839461 0.0027672565 -0.0024619924 -0.0006469626 0.0006399767 -0.0037556002 0.0011856833 -0.0011871676 0.0024347822 0.00058985647 0.0013638648 -0.00026870175 -0.0043143635 -0.0031808796 0.003962952 0.0030781575 0.0036008167 -0.0011658267 0.0031309465 -0.0034501199 -0.0040256693 0.004022041 -0.004789611 0.0020509919 -0.0015311573 -0.0020561283 -0.0026691998 0.0010820315 -0.0032906064 0.0033516877 -0.0047169235 -0.0005285668 -0.001955483 -0.002036342 0.00012797896 -0.0028537707 -0.004095378 -0.0008345363 0.0041376892 0.0015980515 0.004594533 0.0030430676 -0.0028690104 -0.0035906278 0.00039717034 -0.0024198347 -0.0026156665 -0.0038740344 0.0048429775 0.0030692534 -0.0036117686 -0.0015312344 -0.0027406607 0.0035429911 0.0024213612 0.003045079 -0.00014462844 -0.0045108823 0.0024084526 -0.0034334168 0.0025242344 -0.0033288947 0.00017191512 0.0024046232 -0.001399473 0.002917601 -0.004604492 -0.0024694612 -0.0015250194 -0.0019489172 -0.0009944963 0.0026708567 0.0043617478 0.0041647623
左滑移槽 0.0003328422 0.0049041174 -0.00430462 0.0044957744 0.0034953812 -0.0007463981 0.0026908426 -0.00041751633 -0.0013368925 0.0031414793 -0.0013440083 -0.0010635155 -0.004631756 0.0025173072 0.0018535481 -0.00014470135 0.0017225797 0.004401093 0.0027673347 0.0015007098 0.0017989154 0.0048779002 0.0032937434 0.0036756601 -0.0038798717 -0.004535903 0.0049247006 0.00074494065 -0.0038242838 -0.002133564 -0.004049529 5.7171976e-05 -0.0013976339 -0.0013347445 0.00088032795 -0.0031791038 0.00063141185 0.0037659935 0.0005096755 0.0034952215 0.0038254391 0.0019278276 0.0023094038 -0.004564522 0.003257765 0.0022969018 -0.0026914936 0.0016452174 -0.0003646391 -0.0038222417 -0.0020233938 -0.00018414881 0.0009772218 0.004190057 -0.003539858 0.0010478551 0.0019792845 -0.00381817 0.00435593 0.0038775182 -0.002434717 0.0012343589 -0.0014085431 0.0014277216 0.00029677496 -0.00014597419 -0.0023466512 -0.00070040056 0.0036049304 -0.0007208625 -0.0023022844 0.0024995247 0.0015731065 0.0011436591 0.0025725313 -0.00444291 0.0018211675 -9.7176904e-05 0.0006198639 -0.0021932446 -0.0031388237 -0.0015021327 0.00012096676 0.0035168203 0.0011579385 -0.0048614834 -0.0037328308 -0.0033549743 0.0018190194 0.0013172936 0.0023855711 0.0014966626 0.0014284085 -0.0011439725 0.0024229048 -0.00068414747 -0.0009659435 0.001839419 -0.0032204816 0.0012462222
充电桩体 -3.0972937e-05 -0.00027413495 -0.0015582409 0.003654357 0.00068068673 0.0049659074 0.0015799124 0.0046234536 0.003713942 0.0019602058 0.003227143 -0.0005127372 0.0022501869 0.004952074 -0.0041471487 -0.0020378006 0.0008091447 -0.001123502 0.0010888798 0.0026802795 0.0032804012 0.0036194904 -0.0012487024 0.0026059623 0.0012627298 -0.0031637822 -0.0013066863 0.00050746725 0.0022767666 0.0042848587 0.0034269495 0.0036237661 -0.0026873474 6.153201e-05 0.003236017 0.0017462936 -0.0028131646 0.00036007652 -0.001748894 -0.0016639859 0.004196993 0.0018008777 0.0016164236 -0.0031147362 0.0023169084 -0.004570608 -0.0014941051 -0.004875535 0.0014163129 0.0023801075 -0.0016230005 -0.0029116224 -7.035517e-05 -0.0021963203 0.0006831612 -0.0018766731 -0.0048870165 0.0032369825 -0.0044742245 0.00434893 -0.002368937 0.0011115929 -0.0031646448 -0.0011314749 0.0032104517 0.00079513877 -0.0045163506 -0.0049977857 -0.004214387 0.004435555 0.0037339942 0.0037626592 -0.0013430823 0.004284018 0.004145132 0.0035989482 -0.0019923495 0.0039073927 -0.0015436254 0.0022595215 0.004500397 -0.0006845189 0.0018815004 0.00089310703 0.0003817975 -0.0028451644 -0.001457044 0.0045087994 0.0019554351 -0.0035444826 0.0034995633 -0.0015646009 -0.0009175449 0.00476615 0.0024390626 -0.0004281594 -0.0013399804 0.002834584 -0.0017307737 0.004644676
智能控制模块 0.0012861355 -0.0018866684 -0.0025142408 0.00052483287 0.0034052513 0.004315313 -0.004914939 -0.0039229277 -0.002382868 -0.00063789304 -0.0014754115 0.004209274 -0.0027309223 -0.0033306654 -0.0049331808 -0.0043575126 0.0007617834 -0.0014858444 -0.0039258455 -0.0046818657 0.0033713423 -0.0048437743 0.0033504574 -0.0042687207 -0.0035537456 0.0020727469 0.00084375986 -0.0015342565 0.0045857886 -0.0048099556 -0.0014352243 0.00063258037 -0.0049532587 -0.0010594522 -0.0046851165 -9.052527e-05 0.0037612747 -0.0012180007 -0.003379929 -0.00012012688 -0.0024117343 -0.0024346216 0.00036630433 0.0049230596 0.004377579 -0.0037277357 -0.0007980714 -0.0004056164 0.0034131717 0.0018806278 9.3826064e-05 0.0028582157 -0.0036328037 0.0031528198 -0.0013692295 -0.002397337 0.0037400054 -0.0031063552 0.0045303605 0.0014676403 -0.0006248973 -0.0012300422 0.0018568607 -3.1016956e-05 -0.0018458946 -0.00088097446 0.00071694585 0.00015952013 -0.0031951398 -0.003696258 -0.0024466438 0.0043559778 -0.0046204054 0.0022831801 -0.0049920105 -0.00080325734 0.0018670298 -0.004344152 0.0027418106 0.0012714965 -0.0049225274 -0.00044303722 0.0028780147 0.0036774976 0.004556151 0.0025188203 -0.0016041634 -0.0032054142 -0.0031128745 -0.0008207724 -0.0028717965 0.0032107576 -0.0014154322 -0.00084515195 -0.0035385545 0.0038170286 -0.0046727196 -0.0004885621 -0.002262908 0.0016114532
插块 -0.0036986188 -0.0045201355 -0.0039092866 0.0049756765 0.0037587986 0.0012727806 -0.00078062405 -0.002235704 -0.0014919231 0.00301741 -0.00018113342 -0.0042142286 -0.0012036945 -0.0011996973 0.001498631 0.0012165989 -0.0026348024 -0.0028711609 -0.0036003047 0.0027101266 0.0041133836 0.00079701585 -5.862797e-05 0.004191679 0.0014319286 -0.0007465145 0.0033998103 0.00024065899 0.004743867 0.004143983 -0.0013141608 0.000956199 -0.0036539796 -0.0014353242 -0.0027187574 -0.0021598728 0.0036850693 0.0043781353 -0.0031062425 0.0017877597 -0.0041559013 -0.0012947555 -0.0005112988 0.0020363752 -0.004528867 -0.003302825 -0.0025908763 0.0015445728 0.0034259001 -0.00039236658 0.0045078145 -0.004836709 0.0044843312 0.0029424515 0.0036128643 -0.0043436103 -0.0049754507 0.0011566499 0.0031866757 0.0001067251 0.004934077 0.0042663156 0.0026619956 0.0030446372 -0.00086174376 -0.0046937102 -0.0036986638 -0.00047809316 0.0014299597 -0.0019603772 -0.004208751 -0.0036021715 -0.0034790868 0.0037350599 -0.0025018672 0.0040935674 -0.003430083 -0.004338998 -0.0032606411 -0.0013200227 -0.003885053 0.0016527739 0.0010053401 0.0020361915 0.0031584878 0.000425839 0.0047949767 -0.0043765325 -0.003919656 0.0031476463 -0.0043096947 -0.003432674 0.0013279412 0.0019854147 -0.0020491974 0.0048101293 0.0004991348 -0.0013597618 -0.0024029934 0.0023474023
齿圈 0.0018551346 8.31472e-05 -0.00050586544 -0.0001697182 0.0045916275 0.0023263036 0.0010536419 0.0036361674 -0.0038760437 0.0040583094 -0.0036466615 0.0025768422 0.0047041117 -0.0027127673 0.0024609584 0.0031406106 0.0039323345 -0.001791319 0.004959403 0.0041276417 0.0008639056 0.0022273439 0.0031845532 -0.0032142703 0.0008189892 0.004002307 0.00070861913 0.0021336465 0.002723352 -0.0027669861 -0.0032105478 -0.00071711285 0.0031652187 -0.0008043229 0.0041575544 -0.0043217903 0.0043155774 0.0021470382 0.0049768724 -0.004940761 -0.0001755758 0.0026227648 -0.0025743158 0.002830617 -0.0043094954 0.0012612909 -0.00010326836 0.00064052705 -0.0048057903 -0.002405077 0.004241558 -0.0027954928 0.00014885719 -0.0033159195 -0.0045990855 0.0003170465 -0.002808211 -0.003765391 0.0027907223 -0.0029763451 0.0014109734 -0.0005227851 0.0031152074 0.002399678 0.0033667332 -0.0039846944 -0.0026801894 0.00073618226 -0.00097496866 -0.004405402 -0.0023952024 0.0043694726 -0.00218409 -0.001417997 0.0004334899 0.0027294508 -0.00045353067 -0.0024702172 0.0045437757 -0.004693679 0.00084738573 0.0030351458 -0.0025559613 0.0022164478 -2.292293e-05 -0.004273448 0.00082495605 0.004238872 -0.0005295827 -0.0007042941 0.0026519482 -0.003990636 0.001971425 0.0049455105 0.0019765531 0.0006041824 -0.0013042064 0.004826674 -0.0016864423 5.2828374e-05
盖帽 -0.0028126903 0.0005358202 0.0005517467 0.0016734819 -0.0039018022 -0.0028058637 -0.00388555 0.0028311654 -0.0030612142 -0.00093955005 0.003042036 0.0011621214 0.0007088292 0.002866466 0.0010993069 0.001316036 0.0007446124 -0.0016551097 1.4587678e-05 0.0028248674 -0.004420902 -0.0039990167 -0.0028780361 -0.0024510708 0.004097752 -0.0018912384 -0.0017628974 0.004965405 0.0034864012 -0.004113524 0.00357856 0.0021342596 -0.0018158663 -0.0037529294 -0.0036952316 -0.0033486607 -0.0033029362 -0.004320989 0.0046348874 0.00370675 0.00028214525 -0.002506831 -6.5489044e-06 0.0033300258 0.0047187298 -0.0036474084 -0.003365819 -0.0047378833 0.0009803772 0.0031435464 -0.0013909051 -0.0037354175 0.00019757639 -0.0009916968 0.0026799492 -0.0043481058 0.0045726174 -0.002051594 0.0006614404 -0.0030612817 -0.0022510488 0.004765311 -0.0024714274 -0.0010525653 0.0045713894 0.0040245927 -0.001731281 0.0025693611 -0.002096284 -0.0038366667 -0.00011313265 0.003396683 -0.0014015954 -0.0015872741 -0.00029788492 -0.003757921 -0.0033655039 -0.00018372905 0.00021904237 0.0020486023 -0.003806852 -0.0014859226 -0.0034509 0.00035499883 -0.0009421088 -0.0047811 -0.0010181253 0.0029650116 0.0049605737 0.0032558937 -0.0034339929 -0.0011021297 -0.00023991214 -0.0042407587 -0.0021191032 0.0015087767 0.0027584152 -0.00095245097 -0.0023240803 -0.0036556232
充电口 -0.001568863 -0.0011192303 3.975512e-05 2.9112198e-06 -0.00059513014 -0.0025931413 0.0018419969 -0.0024570574 0.0032639415 -0.001047893 -0.0042659515 0.003165103 -0.00068834587 0.0026244007 0.0034055116 -0.0039447783 0.003642083 0.0035023347 -0.004681506 -0.0032438315 0.00073294283 0.00042302386 0.002778265 0.00402501 -0.0041365093 0.002076144 0.0024441434 0.0038066513 -0.0039095716 -0.002430934 0.0022033346 -0.0043178196 0.0045682034 -5.1052088e-05 -0.0049019507 -0.0001940743 -0.003988204 -0.0031191139 -0.0036047471 -0.0013188168 -0.0037413272 0.004532252 -0.0017929885 0.0012482211 0.002126132 0.0005078499 -0.004058356 0.0030687843 -0.0022616477 0.0027984688 -0.0009635192 0.0014301866 -0.0015377931 0.004965575 0.0018691751 -0.0010298962 -0.003541368 -0.00063824037 0.0033108888 0.004251319 0.0029907094 0.0030529196 0.0049394304 0.0026188649 0.003914289 0.0042190826 0.0048790355 0.0015458041 -0.0025335965 0.0014364539 0.0029286828 -0.00147447 -0.0011968018 -0.0033978447 0.003514675 -0.00019972195 -0.0003740115 -0.004463685 0.0037272628 -0.0022928116 -0.0027155762 -0.002289517 -0.0008121325 0.0018745309 -0.003452586 -0.004001035 0.004301356 0.0036531177 -0.0015349435 0.00089621195 0.002167761 -0.0025356235 0.004738979 -0.0020301028 0.0038836803 -0.0046191937 -0.0008115024 0.0029946864 0.003947432 -0.0040114643
存放架 -0.0032473032 -0.0006554649 0.0033665071 -0.0023689228 -0.00025235617 -0.0033306296 -0.00017011644 0.0035065114 0.0041349353 0.0012832469 -0.0013252401 -8.4320156e-05 0.004768455 0.0017981181 0.00085253327 -0.00043296977 0.0039421637 -0.0041338773 0.0016105564 -0.004861794 0.0016503093 0.0023613411 -0.0024904378 0.0038343016 0.0012629902 -0.0029582945 -0.004367992 -0.0042054662 0.0037840887 -0.0022752369 -0.0031001472 -0.0002858671 0.004599939 -0.0026180472 -0.004398201 -0.004151986 0.0033203443 0.0027331072 0.004341598 0.0025913692 0.0014047788 0.00229438 -0.0005388088 0.00068894506 -0.0027770551 0.004735622 0.0040523335 0.003182165 0.004457779 0.0023723461 -0.0034823788 0.004568632 0.0030014613 0.0034699077 0.0018183773 -0.0008124962 0.0015043891 0.0021342265 -0.0021931932 0.0030635241 -0.00059739867 0.0047344686 0.0004636763 0.0043519894 -0.0046953047 0.00037965918 -0.0049144784 0.003962248 5.3632873e-05 -0.0010354653 0.0024518766 0.004821243 -0.0012389661 0.0033849701 -0.00056496856 -0.0027997333 0.0032275654 0.003447656 0.0006074724 0.0012615959 -0.0039898157 -0.0017533558 0.0045108073 0.0037034582 -0.003578226 0.0032211524 0.0043115895 0.0045468137 0.002135688 0.0021537202 -0.0031789714 0.0016733587 1.3352525e-05 0.004058593 0.0009385457 0.0037377519 0.0025923597 -0.0033187014 0.00056376273 0.0030006364
充电桩 -0.0034301362 0.0020896962 0.0019228515 -0.0029497356 0.0027130968 -0.0013134718 -0.004883027 0.0008576122 -0.00011747722 0.0018828309 -0.0013208117 -0.0043179262 -0.001562514 -0.0020739585 0.003435177 -0.0040375586 -0.0006233455 -0.001521745 0.0038922413 0.00072178576 -0.0031686446 -0.00015399406 -0.0049916767 -0.003080627 0.0039961766 -0.0013076973 0.00338427 -0.0021173323 -0.0004367 0.0026523583 0.00051575043 -0.0034282848 -9.9414225e-05 0.0042329025 -0.0041677356 -0.0018432606 -0.002932342 -0.0039353115 0.003946874 -0.0011208603 0.0014581039 0.0024512494 -0.0011649078 0.0011948505 -0.0013487682 -0.0047156517 -0.00025988554 0.0049558063 0.00044662287 -0.003956735 -0.0043582167 -0.00034314324 -2.8299266e-05 -0.00058562914 -0.001251124 -0.0039093224 -0.0048507475 0.0011792482 -0.00043778933 0.0031785294 0.0021614484 -0.0035664767 -0.004187481 0.0001285297 -0.002648698 -0.003786955 -0.000552147 0.0008171743 0.0035581698 0.0020043345 0.0026475543 -0.0006500468 -0.0043165516 -0.0014407438 -0.0023373629 0.0016126868 -0.004426695 0.0020760845 -0.0038049931 -0.0009779816 -0.0019771762 0.0013764628 0.003634098 -0.0018238641 -0.004678925 0.0023462735 0.00073304697 -4.220092e-05 -0.00018080379 0.004442446 -0.0047577755 -0.0032963944 -0.0048836335 0.002486397 -0.0029619162 0.0040636156 0.0015259207 0.0017334138 -0.0016492599 -0.0033612594
动力电池包 0.0016593487 -0.0009451732 0.00062456675 0.002359441 0.0045684157 0.001251811 -0.0038367957 -0.0013783418 0.0035857402 0.00058037776 -0.004627588 0.00013429117 -0.0010781798 0.0016722198 0.0020277926 0.003032116 -0.00069389684 0.0014652743 0.0042345375 0.0021794583 0.00251054 0.004700333 -0.0015709755 0.0001042354 -0.003553442 -0.0006002231 0.0049536903 -0.004068006 -0.0019046448 -0.0048893127 -0.0011296553 0.0016080326 -0.00463184 0.0023904045 -0.0011462449 0.0036666265 -0.002665773 0.00014911595 0.0011324964 0.0028410843 -0.0040439703 -0.0004941111 -0.00043112773 -0.0039137616 0.0034214344 0.0020129692 -0.0034370862 -0.00091254705 0.00015843681 0.0038539644 0.003055222 -0.0019146643 0.0033528027 -0.000981524 -0.0035646004 0.0036350116 0.0032294483 0.0017691449 0.00011987906 0.00093919924 0.00015168813 -0.0044575064 -0.0034834172 0.0017987167 -0.0033901657 -0.0034799392 -0.001841606 -0.0030416297 -0.0024416212 -0.0033802127 -0.00027731684 0.0015723952 0.0008876293 -9.275639e-05 0.00036639284 0.0007784658 -0.0014744395 0.0003307555 0.002691988 0.0029383977 0.0035190142 -8.823064e-05 0.0033048952 0.0021352796 0.00020187367 -0.0042382153 -0.003356567 -0.0014465332 0.0021456575 0.0026571406 -0.00013327188 -0.0043634474 0.0030714965 0.0041974527 0.0026923309 -0.0007200211 0.0023318173 0.0023990015 -0.0028147576 0.0009695141
驱行槽 0.0015641002 -0.0018863139 0.0010757099 0.0032875051 -0.0046673035 -0.0019981714 -0.0025986065 -0.0028799227 0.002910371 -0.0035779215 -0.0036632984 -0.0029326454 0.00087702635 0.0041770376 5.3909924e-05 0.0021388414 0.0017133808 -0.00422192 0.0006927515 -0.0015656147 -0.0031311647 0.001978985 0.0007719715 -0.0047330656 -0.0033843757 0.0047366866 -0.0020177057 0.003490443 0.0029937737 -0.0043899096 0.0020314998 8.518328e-05 -0.0029153945 -0.0021893014 0.0037659176 -0.00021169506 -0.003742758 -0.0012015161 0.0006297017 -0.0039969864 0.0012440704 -0.0002028454 -0.0012574439 -0.0015978911 0.0027975673 0.0027855178 -0.003846057 0.004073253 0.004180272 0.0015996898 -0.0030134192 -0.0018354434 -0.00020653891 -0.000734572 -0.0035303065 -0.00029890533 0.0027146859 -0.0014214861 0.00020829252 -0.0039600916 -0.0013055828 0.0033827983 0.0015123439 0.0031456714 0.0019642753 0.0012722192 9.058902e-05 0.0027654362 -0.004833927 -0.0027146824 -0.0028361368 -8.930039e-06 -0.004664836 -0.004137253 -0.00047182303 0.003938105 0.004767673 0.0010971739 0.0040117796 -0.0027428418 -0.0031328234 0.001744263 0.0015945263 0.0037682154 0.004844379 0.0012170936 -0.002790327 -0.0049157017 0.002103196 0.0041344846 0.0044225184 -0.0044879103 0.0005442167 -0.0027440249 -0.0040262057 0.0029689956 -0.0023472833 -0.00083751685 -0.0016562613 -0.0020222275
轨道槽口 -0.0014929952 0.003453698 -0.002377705 0.003167126 -0.00441958 -0.003009847 -0.0023188945 1.7357666e-05 -0.00016317886 0.004928343 -0.0011470098 0.0006453098 -0.0045616576 -0.0044727745 0.0012121585 -0.00440738 0.0045463294 0.00026313926 -0.00094072614 -0.002745256 -0.0022829354 -0.004483587 0.0031812747 0.0036183242 -0.0039725187 0.0019222208 -0.0027712486 0.0027626087 -0.0016398584 0.0039194883 0.0006047006 0.001457924 0.0012669245 -0.0024946365 0.0045526847 0.0019743866 -0.00067705987 0.0033293355 0.0014382956 -0.0018460844 -0.004900539 -0.0046928553 -0.00030911973 0.00045733727 -0.0022398715 -0.0011962658 0.0035695715 -0.0027912164 0.0005831437 0.004799212 0.004632597 -0.0017671327 -0.0025461966 0.0025049534 -0.0047926903 -3.276715e-05 -0.0014628292 -0.0040772506 -0.0026709521 -0.0012419091 -0.0012850919 -0.0019664916 -0.0026201352 0.0016602605 0.0012673726 -0.0018910334 -0.00040678543 -0.001986106 -0.002471326 -0.00050034816 0.001028896 -0.00031713932 0.0015836656 -0.0022912947 0.0006145066 -0.003561846 0.0021393748 0.0027043417 -0.00026870906 0.00420594 0.0044119363 0.002708278 -0.0039102538 -0.0013837189 0.00394545 0.0009863916 0.0036978647 0.0033755424 0.0034461676 -0.0035769206 0.0044983625 0.0014772454 0.0014787172 0.0033175137 0.002377361 -0.003398468 0.001694229 -0.0029709307 -0.004461861 -0.0008419403
右滑移槽 -0.0026225294 0.0016174975 -0.0026045102 -0.0009822391 -0.00485124 6.0854676e-05 0.002258692 0.004970409 -0.0044657234 -0.0031856864 -0.004272867 -0.00029932713 -0.00043247797 0.004904806 -0.00031445056 -0.00203388 -0.0006590642 -0.002325775 -0.0041884673 -0.0014621783 0.0026850526 0.00023395587 0.0046039517 0.0030754388 0.001110282 -0.0025097525 -0.0013939973 0.0014014117 0.0018589409 0.0018179766 -0.0012815818 -0.0014052003 0.0006179991 2.1565005e-05 0.001048111 0.0048711356 0.0003117317 -0.0032681415 -0.0039887824 -0.003407347 -0.0028206904 -0.0033143333 -0.00018095573 0.0013507343 -0.003506626 0.0029137584 -0.0040266546 0.0042840503 -0.0011263211 -0.00027004076 0.0009866074 0.004487547 -0.004553564 -0.003447932 -0.0025227915 -0.00036234834 0.0030494835 -0.0010468769 -0.0022681288 -0.00028781834 -0.0026184355 0.0032657937 0.003706518 -0.0027854897 -0.004690912 0.004651674 -0.0033292128 -0.0001349674 0.0016150456 -5.5047394e-06 -0.004467784 0.00031359115 -0.0037833103 -0.0023494898 0.0037951795 -0.00052584667 0.0029366252 -0.0011360401 0.00116468 0.0015323652 -0.0019618736 0.0023434467 0.00010232981 0.0021324714 0.0035275684 0.0004078658 0.0030208218 0.0042315912 0.00013926116 -0.003526275 -0.00063224474 -0.0024378148 0.0031059438 -0.0018960574 -0.003682476 0.003449803 0.0035633743 0.0035107348 -0.004420596 -0.0020021293
联电腔 -0.004662289 0.00040594718 0.00014962576 0.002850434 0.0037296694 -0.0012463197 0.002589774 0.004778699 0.002543909 -0.0012184922 -0.0020606804 0.0006129951 -0.0036725884 0.004736636 -0.003256478 -0.004137814 -0.0017017091 0.003674768 -0.0019262737 0.0034697263 0.0034624299 0.0014715326 -0.001296036 -0.0032355816 0.0036367124 0.004805354 -0.0015425244 0.0030454702 -0.0019046367 -0.00060738955 -0.0034929598 0.0010478989 0.0015789036 0.0031986593 0.0001867393 -0.002163993 -0.001595377 0.0026997174 0.0024034178 -0.004232586 0.0040682293 0.001941981 0.0027924743 0.0035973457 -0.0027642292 -0.00052505557 0.0026007707 -0.0044726375 -0.0026698478 0.004171364 0.0025642088 -0.0031475758 -0.0007388597 -0.0020925116 -0.004994459 0.0042749587 -0.0017869457 -0.00082987256 -0.00047266335 0.0019299941 -0.0024491167 0.00070319447 0.0036836143 -0.003201018 -7.80443e-05 0.0010109007 -0.0037642955 0.0037798563 -0.0039614374 0.004901599 0.004712638 -0.0037384506 0.00024291856 -0.003851093 0.0015064601 -0.0012660803 -0.00059656973 0.0048410436 0.00029064884 -0.0017185182 0.0049971975 -0.004223372 -0.0015054237 -0.0032555154 -0.0038976334 -0.00075080706 0.004096356 0.0007014968 0.0020366285 0.00040570623 0.0011311246 0.0019654345 0.004677903 -0.0028008297 0.0021580916 0.0014531714 -0.00036581617 -0.0013348255 -0.004595435 0.00049167866
引电口 0.002163738 0.0031840033 -0.004446588 0.0011711805 -0.002768008 0.0016505405 0.002558014 -0.0027513206 0.002013043 -0.0015768711 -0.00049985637 -0.0014536135 0.0010329175 0.00035379693 -0.004231382 0.0006723475 -0.0040430184 -0.0016767593 -0.0040670815 0.0009053899 -0.0012865013 -0.0032027464 0.0015057412 0.004374898 -0.0010446247 0.0044485964 0.0025510038 0.002718284 -0.0049267216 0.00054050394 0.00057510467 0.0042448402 -0.003624018 -0.0030121005 0.0042393613 0.0009225267 0.0040266775 -0.0040042093 -0.0037494367 0.0033420115 -0.00424122 -0.004184613 -0.0014722381 0.0016344959 -0.0022629816 0.0028256315 -0.00011720662 0.0027208913 -0.0042968146 0.0015110406 0.0004681718 -0.0045451783 -0.0022454949 0.0042745904 0.003970007 -0.002956932 0.0025796602 -0.002718636 0.0010087637 -2.8603195e-05 0.0020227467 -0.0016433938 0.0008283374 0.0016994865 0.003153492 0.0036465733 -0.0037714392 -0.0037825601 -0.0018153961 -0.0010766123 0.0024076197 0.003570142 0.0048261965 -0.0018160297 0.004424069 0.0048783696 -0.0029595657 0.0048504453 0.0034597307 -0.0028892076 0.0023023516 -0.0009543415 -0.0019538275 0.0032299412 0.0001947373 0.0022416934 0.003512989 -0.003682319 -0.0010086272 -0.0037248705 0.0013404125 -0.0022173743 0.0016656208 0.0019540214 0.0042143003 -0.0034717896 0.00042995097 0.0027066276 0.0029803647 0.002940513
滑移块 0.0017584336 -0.0038012252 -0.0019021686 -0.003983464 -0.00090898626 -0.0041574943 -0.0009293197 0.000104622515 0.0027491078 -0.0018140023 0.004237245 -0.0021189828 -0.002590583 0.003174621 0.0020915838 0.0036568649 -0.003102052 0.000779951 -0.0011956405 0.0039534806 0.0013967443 0.004360641 -0.0006547548 -0.00071465765 0.0019491456 0.0042240033 0.003344396 -0.0040210662 -0.0017609479 -0.0028448037 -0.0006409861 -0.0038180682 -0.00061396323 -0.00425742 0.0010673334 -0.0047934875 -0.0022809927 -0.002308523 0.0004707091 -0.0043812646 -0.0036123577 -0.00492292 -0.0015623287 -0.00044888153 0.004480533 -0.00070735405 0.0022396003 0.0029914647 -0.002046512 0.0044043176 0.003143941 -0.0037387172 0.004184247 0.0037678778 -4.5522516e-05 -0.003243845 -0.00026389264 -0.0008832451 -0.0045444774 -0.004871306 0.0048776204 -0.0008140887 0.0012266962 0.0009707233 0.003613781 -0.0027541118 0.002663443 0.0020171069 0.0017109133 0.0038395056 -0.0010044439 0.00097192207 0.003406665 -0.0020923864 0.0013045612 -0.00034213584 -0.0021577915 -0.0015976634 0.0039630197 0.004464547 -0.003573805 -0.0021287731 0.0005862576 -0.0046004667 0.0017562484 0.0024777593 0.0034986315 0.0010495143 0.0014089362 0.00465274 -0.0025934312 0.0035259272 -0.0027251793 -0.0018169634 0.001729186 -0.0034804489 0.0013386939 0.00013919009 0.0030318615 -0.0014511959
锁紧条 0.000511309 -0.0035601228 -0.00441466 -0.00057436514 -0.0013356665 -0.000341411 0.0027969703 0.0002538883 -0.00197141 0.0005634657 -0.0044382326 0.0011028816 0.0041230186 0.0019303407 0.0039579747 -0.0006797294 0.0046584406 -0.00015566894 -0.004372951 0.0045333174 -0.0033788416 0.00066702545 -0.0014654221 -0.0044323998 0.002766175 -0.0033291464 0.001127143 0.0046421103 -0.00018506323 -0.0049238084 -0.0024391443 -0.0041760188 -0.0016593897 0.0024076758 -0.0031620564 -0.0008919113 -0.004168146 0.0027962306 -0.0018681401 0.0016884434 0.004551275 -0.0023614513 -0.00092566427 -0.0007934496 -0.0019272966 -0.0033410226 -0.0041354336 -0.0031693382 0.0048188614 -0.00051528314 -0.0034684914 -0.0014321051 0.0047204043 -0.003643181 0.003910769 0.00108455 -0.0011883869 -0.0034444816 -0.0018177727 0.003587493 0.0003304328 -0.003016899 -0.0016683434 -0.00011408643 -0.000843766 0.002950548 -0.003841752 -0.0037771347 -0.00057628704 -0.0006425098 0.004926559 0.0013643127 -0.00395704 0.0017867832 -0.0009726662 -0.0016284137 0.0012235158 -0.004280739 0.0009352924 0.0031590504 -0.001884669 0.002524983 0.0028981073 0.0038123745 -0.0005598694 -0.0040352466 0.00030950631 -0.0048798346 -0.0042230957 0.003176041 0.002165311 0.0020797374 -0.00018006288 0.0017470083 -0.0013184444 0.0042568026 0.0016247183 0.0019020698 0.0010335338 -0.0013605931
运行腔 -0.0010770634 0.001049455 -0.0008626627 0.0022997095 -0.0047312537 -0.001869907 0.0014800283 -0.0040882314 0.0023641181 0.0029406569 0.002563469 0.0012480097 -0.0023747296 0.002230942 -0.00073801214 -0.002575089 -0.00029176465 -0.0016263238 -0.0045606275 0.0028419704 -0.0046273097 -0.0011092882 -0.0024257603 0.0014634957 0.00026523936 0.0042753774 0.00015166622 0.00071459694 -0.0023458318 0.00086136826 -0.0044400855 0.002473495 -0.0031396074 0.00044399666 0.002021423 -6.248255e-05 -0.004617177 -0.0010732918 -0.004717464 0.0044859755 -0.0009711861 -0.0018398312 -0.002851622 -0.0039028141 -0.0015339649 0.0039380253 -0.00038602602 -0.00471101 -0.003461233 0.0009800649 -0.0010120093 -0.001429155 -0.0036569044 -0.002934006 0.00020411765 0.004421949 0.0036720827 -0.003394801 0.0047811344 -0.004645306 0.00038866748 0.0012994586 0.0020409343 -0.0015685587 -0.00090042525 -0.0011663178 -0.0042892247 -0.004929072 0.0039255125 0.0023757708 0.0018520681 -0.00079587626 -0.0014540786 0.0005381984 0.00057261874 0.0005805514 -0.003724667 -0.003689161 -0.0043852623 -0.0020631666 0.003424177 -0.001632247 0.0036557424 -0.00392412 0.001709394 0.0032063692 -0.0045169243 -0.004031566 -0.0019964888 0.0032672568 0.0047474364 0.001702612 0.0049770456 -0.0010306676 0.0028231852 0.0029532427 0.0015654196 -0.0035442365 -0.0038671996 -0.0027251495
太阳轮 -0.002452643 0.0014814874 -0.004257062 -0.0010975619 -0.0012212162 0.0021229375 -0.004558587 0.0029045606 0.0012739255 0.0047238744 -0.0022396867 0.0017491728 -4.9677084e-05 -3.1286513e-09 -0.0011151228 -0.0035764608 -0.004915072 -0.00275129 -0.0003820872 0.0025245927 0.0032249382 0.0023320701 0.004353804 0.0028020358 -0.0027453136 -0.0018862627 0.0004793741 -0.0018014772 -0.0034591577 -0.0017249119 0.0019414949 0.0005456209 0.002725661 0.0042091114 0.003075797 0.00010478042 -0.003399714 0.002908791 0.0017793385 0.0034180097 0.0015795939 -0.0029332247 -0.0043232194 -0.004483863 0.0023057577 -0.004155818 -0.0031457176 0.00374824 0.0016608136 -0.00024082097 -0.0018438329 -0.0042349114 -0.0024119616 -0.00013747552 -0.001952009 0.0029917755 -0.0013817898 -0.002715209 0.004280972 -0.002634988 0.0017132709 0.0032453996 -0.0024187132 0.0026532176 -0.0045690825 0.002130466 0.00010571754 0.004746985 0.0013526252 0.0029806832 0.0029272856 -0.003272969 0.0006341122 -0.004822561 -0.0030563143 -0.004559192 0.00069567625 -0.00051669264 0.0030785676 0.0020988889 0.003457367 -0.0009132246 0.004701736 0.0042483457 0.0037442958 0.0031468577 -0.004739301 -0.00017393807 0.0026217634 -0.00054535444 -0.0009344495 0.0036877715 -0.0040140026 -0.0020467762 -0.002727473 -0.00011602838 -0.0035547412 -0.0022674128 0.0023931307 -0.00016645486
容腔 -0.0028343163 0.0012743563 0.0040660636 0.0009416951 -0.0017956288 -0.004654101 -6.539663e-05 -0.0014861578 -0.0035062192 -0.0032840834 -0.00088782585 0.00041173495 0.004027576 0.0011979269 0.0017886504 0.0018151848 0.0018975467 -0.004140318 0.0025521861 0.0041865245 0.0004646523 -0.004784292 0.00019820596 0.0017126553 -0.0012214874 0.002542695 0.0033565385 -0.00037725817 0.0017504063 0.004279807 0.004231629 -0.0031625212 -0.0012560439 0.0019520924 0.0046045817 -0.00057822565 -0.0046923906 -0.0026377174 0.0045069666 0.0017395124 0.0040744557 -0.0018315718 0.004501504 0.0049114455 3.8233047e-05 -0.004358172 -0.0042171627 -0.000751178 -0.00011839029 0.004981353 0.0039501227 0.0020424123 0.00040108242 0.0019367943 -5.908163e-05 -0.003944971 0.0032666733 0.0017581867 -0.0018714169 0.0016717467 0.0042102276 -0.0002566669 0.0047893343 -0.00033049556 0.0041718986 0.0041549834 -0.00228287 0.0013396562 0.004499693 -0.002916509 -0.004227315 0.0033167459 0.0025942125 0.0016755152 -0.0005510258 -0.0027446111 -0.0046202485 0.0026605607 0.0046577617 -0.001763564 0.0023985647 -0.0038405205 0.004798904 -0.0004850261 -0.003817893 0.00054479454 0.003199893 0.004926547 -0.0035451022 -0.0033607953 -0.004511101 -0.0033875129 -0.0034803103 -0.0025586016 0.0014197732 0.0030986841 -0.0031805616 0.0023770954 -0.0011251085 -0.0033757223
主传动轴 -0.00050907664 -0.0015896957 -0.0035211828 -0.0013556066 0.0036961508 0.0044345153 -0.002762116 0.000288966 0.0020555137 0.00222255 0.0016769083 -0.0042012436 -0.0007998551 0.00027284102 0.004314019 -0.00070728175 0.0040712147 0.00095058605 -0.0010079428 0.0015632509 0.0016638809 0.004649629 -0.004528975 0.0015778394 -0.0020379992 -0.0026207876 0.0036561189 -0.0013675217 -4.985373e-05 -0.004789319 0.0036109313 0.0018936327 -0.0023582433 -0.002358836 0.0012024358 0.0009627838 0.00022647799 -0.004844664 -0.0009736344 0.0036910367 -0.0013127176 0.0015806068 0.004169182 0.0005036943 -0.0028561223 0.0046385215 0.0015324581 0.0033864025 0.0032803533 -0.0030807266 0.0019004685 -0.003294047 0.004906843 0.0007588137 -0.004631177 0.0044891494 0.004699352 -0.0014179462 -0.0031011808 0.0011449873 0.00016085341 0.0045455433 -0.0037372191 0.0007244607 -0.0025576015 -0.0023352858 0.0040147225 0.0007381292 -0.00022865394 -0.0022205175 -0.000886476 0.0017948179 0.000902674 -0.00034901904 -0.0020952437 -0.0030393575 0.0037635984 0.0044735456 -0.00092640094 0.002533485 0.0027857749 -0.0034944676 -0.0022326757 0.0001958782 -0.002696977 -0.004239729 -0.004906932 0.0044619413 -0.00069101877 0.0012143528 -0.0006655785 0.0015004935 0.0007336166 0.0021382554 0.002823418 0.003508281 -0.0034395305 0.0010446685 -0.0034288857 -0.00023661561
行星架 0.0034736672 -0.0011970869 -0.0027549427 0.0026251953 0.0026382233 -0.0022946747 -0.0020856487 -0.0029831203 0.0026239522 0.004821177 0.0029580325 -0.0042983354 -0.003912035 -0.0027347668 -0.0014684134 0.0015516739 -0.0012641179 0.0021623336 -0.0048373467 0.0034214316 0.0029477351 -0.0021384489 0.0048353127 0.002439994 -0.0032729658 0.0043436545 0.002433133 -0.0032279536 0.0016843101 0.0013680137 -0.004552885 -0.0007019793 -0.0023428593 -0.003921343 0.003731325 -0.0033751216 0.0034414008 -0.0035864373 0.0014780181 -0.0037959127 0.004497737 -0.004629489 0.00499555 0.0016425152 -0.0014183115 -0.0025932314 -0.0044293073 -0.0026755682 0.0032288632 0.0043659885 -0.00016395109 0.0037416983 -0.0045904284 -0.002097542 0.0047206925 -0.0033109835 -0.0049284394 0.0027647296 -0.0017019822 -0.0027014976 -0.0013706125 -0.00090281724 -0.0025412107 0.004482065 0.0013246501 0.004499334 -0.0044170385 -0.0022734888 0.0046415688 0.0007624662 -0.0021706691 0.0043156315 8.888769e-05 -0.0049073645 0.004811648 0.00025882572 0.002434562 0.003563774 -0.0022089803 0.002617861 -0.0010594376 -0.0041108644 -0.0041372045 -0.0016003211 -0.0041595516 -0.0026867138 0.0028506129 -0.0028918092 -0.0035580113 0.0005291452 -0.0012124457 0.00016595353 0.0043981457 6.646394e-05 0.0013992051 -0.0048299264 0.0029526106 0.0003003589 0.0010170896 0.0023030827
单电机深度混合驱动系统 -0.00095360936 -0.004349689 0.0006367043 -0.004089437 0.0033424594 0.0034946841 -0.0003130187 -0.0036897396 -0.004345969 0.0022166127 0.0033194385 0.0038511828 -0.004565754 -0.0022991474 -0.003670476 0.00097317214 0.0012765721 0.002859536 0.0035170594 -0.0042579896 -0.0025065066 0.004846812 0.000534811 -0.0012767547 0.0023909966 -0.0031755294 -0.0014299655 0.004748031 -0.00284537 -0.0040473766 0.0024063878 -0.001783524 -0.0011004797 0.0016846774 -0.0033577764 0.0028558867 0.0009778865 -0.003069714 0.0025804613 0.003568887 0.0009260335 0.0012940074 0.0027148784 -0.0014139297 -0.0017942208 8.963057e-05 -0.004534708 0.0013487317 0.0031152796 -0.0022442061 -0.0029455647 0.0008981149 -0.0007954367 0.0011834896 0.002497422 -0.0037090962 -0.0014812279 -0.00095977105 0.0016654618 0.0020057543 0.002048966 -0.003914471 -0.0034191606 -0.0021636756 0.0041083763 0.0028438957 -0.0038015652 -0.0028900427 -0.0001968968 0.0013251521 0.0006168347 -0.0017308753 -0.00033720373 0.0036795035 0.00057950587 0.0023106728 0.0041957814 0.004747885 0.0025129493 -0.0028184247 0.001549312 0.00044834547 0.00316125 0.003201446 0.0028071678 0.0004972113 0.0013227512 -0.0018358775 -0.0021384165 -0.0019959316 -0.0005915441 0.0033217764 -0.0010851488 -0.00070420874 -0.0027475178 0.0017076633 -0.0007341484 0.00021451976 0.0031258727 0.004959084
基体 -0.0046936553 -0.0030445524 0.0033791887 -0.003043439 -0.003718219 0.0009681211 -0.0002181771 0.004067232 0.0024487646 0.0042505763 0.00070006633 0.002668261 0.00093126454 -0.00022725882 -0.00092772325 -0.00043384198 -0.00058028364 -0.0018534283 0.00045179698 -0.0017463072 -0.0020507916 0.0038999943 0.0030977698 0.004509692 -0.0013188263 -0.0021139153 -0.001955336 0.002766369 -0.0039766375 -0.0011290094 0.0030082727 0.0037786749 0.0041191312 -0.00020176545 -0.003960696 -0.0010777495 -7.924167e-05 -0.0045056464 -0.0014956467 0.00084676896 -0.0005483718 0.0030428583 -0.0022839708 0.00031636626 -0.0014559173 -0.0045749657 -0.00027679765 0.0015731934 -0.00033964863 -0.0008123773 0.004048254 0.00059876003 -0.0025021513 -0.002081666 0.0033327078 -0.0017720705 0.002529938 -0.0005162432 -0.0028881733 0.0040433416 -0.0018472832 0.0014489226 0.00029657932 0.0028712184 -0.0046142214 0.0039368025 -0.0041102385 -0.0028917266 -0.0013373203 0.004415749 -0.0038166677 0.003412686 -0.00023972362 0.0007583568 -0.0044054952 -0.0023095761 0.004709364 0.00043193222 -0.002210031 -0.0029417907 -0.0028678426 0.0034489457 0.0015406415 -0.003246606 0.0034865201 -0.0048328685 0.0017601423 0.0023667926 0.0040881 0.0041121943 -0.001495168 0.0019286125 0.0027288387 0.0005230883 -0.0016144288 -0.00016892703 -0.00047593136 -0.00269197 0.0035734666 0.0034772085
插口 0.0036518245 -0.0039496636 -0.0022274207 -0.0031619698 0.0006792204 0.0022922158 -0.0031739785 0.0043392675 0.00060973817 -0.0039422475 -0.0036468664 0.0009943651 0.0004084214 0.0010194061 -0.0011372215 0.00072253536 0.0026287942 0.0012537552 0.0031273963 0.0031117075 -0.0016619209 0.004332799 -0.003851519 0.0012687249 0.00230207 -0.0031920355 -0.0009858285 0.0034059 -0.0030412732 0.0009889951 -0.004212529 0.0017802262 0.0015384088 -0.002053585 0.00016790604 0.0034831956 -0.0014590675 -0.0015361941 -0.00010751572 0.003950943 -0.0010083817 0.004219494 -0.0023060297 -0.003349219 0.0013160078 -0.004089188 -0.001430829 -0.0001909895 -0.0017914958 0.0039152247 -0.0028096884 0.0034313188 0.0020062511 0.0033488295 -2.6547395e-05 0.0026254866 -0.002996995 0.0010795846 0.0020641417 -0.0023185248 -0.00029647665 -0.002312762 0.00022062498 0.0026818756 0.0037256018 -0.0023232442 0.0039161565 -0.0014555887 -0.0022281427 0.0001359122 -0.002856229 0.001900676 -0.0033138662 0.0012242709 -0.0020776866 -0.0005936332 -0.0001903359 -0.000572272 -0.0033224795 -0.0043481113 0.0020538804 -0.003893772 -0.0043513672 0.0007824313 0.0013749504 -0.0033355406 0.0045015775 0.004517859 -0.002872958 0.0022486364 -0.0013889722 -0.0011425724 -0.0007099971 -0.0020924092 -0.004873788 -0.0009938076 -0.00063673564 -0.00029397057 0.0006473825 -0.0005730607
减速电机 -0.0007217056 0.0008932354 0.0033820919 0.0018463768 -0.0028839405 -0.0039970675 0.001485062 0.0031201548 0.003512841 0.0027018844 -0.0035333007 -0.004429012 0.0015946276 0.00030559162 -0.00066867616 -0.00133495 0.0044252756 0.0014270393 0.0011893009 -0.0034536547 -0.0045528016 -0.0041325325 -0.00089722633 -0.0041095596 -0.0036126785 0.0038911724 -0.0010274968 -0.00014472709 -0.00036408578 0.0038161704 0.0032955604 -0.0033649388 -0.002300368 0.0016012026 -0.003844201 -0.0027916057 0.001781904 0.0022332524 0.0029864977 -0.0001361543 -0.0034700318 -0.00027474517 0.0012279788 -0.003536126 0.0035294967 -0.0038838661 -0.00095363206 0.0049211597 -0.0047333254 -0.00064945576 0.0007959146 -0.0013605007 0.0011931175 -0.0018278623 0.0018054079 -0.0021659315 -0.00061720965 0.0029875825 -0.0014748024 -0.003064953 -0.0048729978 0.00067850476 -0.0021023676 0.004012376 -0.0013715528 -0.0026462418 -0.0018720194 0.0017117551 -0.0008892097 0.0036070622 0.0029850863 0.0042368746 -0.00035882578 -0.0017565737 -0.0026753233 0.0042782393 0.003400462 0.001661788 -0.001986676 -0.0022966422 -0.0007126836 0.0022784942 -0.004251488 -0.0044208094 -0.0028653417 -0.00059826946 -0.0042786007 -0.0038789618 0.0049563837 0.0036580127 -0.0047794925 -0.0026270496 -0.003195804 0.0001562873 -0.004704637 0.0007371699 -0.0030020548 -0.0023664054 -0.0006994778 0.004808154
充电端头 0.0026627425 0.004269787 0.00028038755 0.0040940503 0.0005590942 0.00086436037 0.004843816 -0.0047315587 -0.0028085317 -0.0024406728 -0.0025833473 0.0009288684 0.001099618 -0.002685758 0.0007022633 -0.0036718082 -0.0035644984 -0.004924709 -0.0042019505 0.0041108206 -0.0019440944 0.0046640364 0.0031605845 0.0046430347 -0.0025285985 0.0012086227 0.0003277963 -0.0029051693 -0.0014677794 -0.0041908654 0.0038537486 -0.0018509545 -0.004543724 0.0025033788 0.0022969907 0.0024077275 -0.0031576045 -0.0030033442 0.0016889734 0.0042341202 -0.0025583846 0.0049836207 0.00467761 0.002239147 0.002543105 -0.0005003542 0.002205119 0.0012729855 0.00033832068 -0.0018210603 -0.0028155732 0.0013494645 -0.0043992563 0.00020941271 0.0040976563 0.0011535143 -0.0017552082 0.004640843 -0.003911608 0.0020002935 0.0026760083 -0.000102000035 0.00055187684 0.0017375662 -0.0038282522 -0.002007168 -0.00077650725 -0.0030395235 0.004661237 -0.000927146 0.0015144174 0.00031488878 0.0038009773 -0.002204626 -0.0047828117 -7.7898505e-05 -0.0044966973 0.0025360896 0.0030745517 -0.0018549165 -0.000764696 0.0026290743 -0.004429538 -0.0017044768 -0.0030480085 0.0029293834 -0.0029080105 0.0037273616 -0.003773647 0.0015803571 -0.0035245947 0.0020572774 -0.0007691794 0.001791016 -0.0011752257 0.0021206625 0.0025016454 -0.0005075877 0.0042928383 0.0032242653
动力装置 0.003964995 0.004349105 0.0038981382 -0.0019618385 0.0035516587 0.001998974 0.00019244551 0.0024266434 0.0040180986 0.0015297813 -0.0011562573 0.0005694671 0.0031198286 0.0028390756 0.0040881676 0.0017098433 0.004643231 0.004580361 -0.0022716147 0.0017337782 0.0036244344 -0.004975247 0.0043411977 0.0047192425 0.0017827677 -0.0013092674 0.0009198794 -0.0026181887 0.00068284234 0.0029609755 -0.0044196644 -0.00047709924 0.0022058918 0.0011505671 0.0032090913 0.0009653418 -0.0014820182 0.0041100644 -0.0016748528 0.0009301504 -0.0049868366 0.00043595472 -0.0047984677 -0.0010246366 0.003277243 0.00074393407 -0.00183216 0.0017983755 0.0002945847 -0.004062393 0.0013458543 -0.0025375749 -0.0040197936 0.0038190805 0.0046295654 -0.001969422 0.003944317 -0.0040075 0.0026396627 0.00073039194 0.0035127471 0.0022862859 -0.0037618298 0.003369321 -0.004541803 -0.0028520352 0.004161996 -0.0011913863 -0.0032958207 -0.0023218994 -0.0038177536 -0.0023104134 -0.0042007337 0.0042143087 -0.0030270782 -0.003406337 -0.004321992 -0.003038255 -0.0048465985 -0.00081411336 -0.0049404292 0.0007032473 0.0028818913 -0.0032596162 -0.003204749 0.0006125537 -0.0003040796 0.00023474473 -0.003639647 0.0019904058 0.00025353054 0.0029872598 -0.0013612888 -0.0018749753 -0.002939863 -0.0022742804 0.0032283382 0.0012757217 -0.00443564 -0.0011776442
滑移腔 0.004651933 -0.0011693578 -0.0030017088 0.0025053485 -0.00374167 0.00021170861 -0.0035972125 -0.00467309 0.00094809796 -0.0019955423 0.0016787512 0.003340016 0.003692517 -0.0027075866 -0.0021267424 0.0010580468 -0.0034954415 0.0026471522 -0.0041479636 0.003248942 -0.00036063427 -0.0010505411 0.0015926096 -0.0020510352 0.0038433182 -0.0048238235 -0.0029490704 0.00050890853 0.0035714915 0.004459264 0.003168298 0.0041740253 -0.00010063725 0.0013554029 0.0013762581 -0.0007067524 0.0021789435 -0.0014641206 -0.0014474356 -0.00068258785 0.0017593951 0.0033023523 -0.0044940743 -0.004949996 -0.0008423925 -0.004456154 0.0044248975 0.0017639253 0.00049430446 0.0036951913 -0.00063776004 0.0030044604 0.004992861 0.00132175 0.0025219156 0.00049730216 0.0004241208 -0.0016786521 0.001074048 0.0007072824 -0.0037412248 -0.0037873348 -0.0019562012 -0.0026979472 0.004228945 -0.0028620511 0.0020388155 0.00055873697 -0.0001074422 -0.0003104439 -0.0044035655 0.0007797569 0.0021715593 0.0025352922 -3.650645e-05 0.000102494814 0.0030123019 -0.0023291095 0.0015317012 0.0031393396 -0.0011284782 -0.00090847054 -0.00079916156 -0.00030104615 -0.003180489 -0.0030486707 0.0005964727 0.0008505803 -0.0046901884 -0.0033408913 0.0040862854 -0.00043055462 -0.0036108145 0.0029166017 0.0033526705 -0.0034640494 0.0041533313 0.0035258036 -0.0011700543 -0.0023074236
插柱 0.00049870403 0.004939663 0.002722495 0.004255813 0.00024355038 -0.002915035 0.0025555026 -0.004703045 -0.0003328424 -0.0036215163 0.0009634259 -0.00011183406 -0.0030676879 0.0042748186 -0.0049559306 -0.0032211642 -0.000644557 0.0016078058 0.0027015163 0.0022719982 0.0019584699 -0.0010443155 0.002699335 -0.0013542258 -0.003363724 0.003978336 0.0020205332 0.0024659755 0.003282259 -0.0030174297 0.0008197265 0.0004293241 0.002908669 0.0022636792 0.0031141015 -0.0025149875 -0.0043304544 0.0039611175 -0.004958133 -0.00344377 -0.0016569021 -0.0043136664 -0.002164933 0.001891993 -0.0023036595 0.0045765163 -0.004788636 0.004221227 -0.004059964 0.0008479886 -0.0033406485 -0.0014168296 0.0043531517 0.00024061083 -0.0014879452 -0.0037612454 -0.004982335 -0.0027320078 -0.0003395732 -0.001959502 -0.0017769854 0.003986542 -0.0036570558 -0.0031840035 -0.0022693488 0.0029507738 -0.0031025135 0.00085135584 0.0019195057 0.0036005166 -0.0016466796 -0.0032556988 0.0011767092 0.0032961797 0.0020886436 0.0026056194 -0.0047017434 0.00395417 0.0035497295 0.0034963936 0.0014819318 0.002209197 0.00038748374 0.0006959109 0.004733248 0.001976113 0.00011936956 0.0028813465 0.0047341795 0.0006946625 -0.001108387 0.0036127125 0.0048510446 0.0032284213 -0.0032564704 -0.00031172848 0.00089591986 0.00266237 0.0012355478 -0.00027646605
腔室 0.0048714513 0.0047018835 -0.0041840845 0.0014137777 0.0026708758 -0.0045496593 -0.0037764942 -0.0023047912 -0.0041497904 0.0014629809 0.002465539 0.0030006247 -0.002056085 -0.0014793599 0.0017999576 0.002937343 -0.0029266223 -0.0044530276 -0.0031693436 0.0045599975 -0.004785226 -0.00027357138 0.0027109892 0.0021816324 -0.0005100387 0.000116815776 0.001853304 0.0018934365 0.00380848 -5.477539e-06 0.0010493099 0.0020170507 0.0037966275 -0.0011601236 0.0045491625 -0.004772677 -0.003740032 0.0035125548 0.004617773 0.0047179977 -0.001203483 0.00047174568 -0.00020782194 -0.00013270676 -0.004491527 -0.0002387562 0.0029819675 0.004066237 0.0028293864 -0.0035904527 -0.0029389155 0.0033054256 -0.003040809 -0.004984795 -0.0029415046 -0.0012670659 -0.0004029611 -0.0026245427 -0.00073413353 -0.0004362393 -0.0005352871 -0.0025128084 0.0034388502 -0.0019450793 -0.0003757688 0.0018862592 -0.0008330541 0.0029933334 0.0048896703 -0.0045513194 0.0005339165 -0.0039900523 -0.0035403767 -0.0015853777 0.00071692717 0.0024862243 -0.00010833236 -0.0038275002 0.0042837784 -0.0028621305 -0.004701868 0.0026480185 -0.0025856565 -0.0045108255 0.004493638 0.0037716127 -0.004697704 -0.0023532517 0.002981505 -0.0007610645 -0.0011884659 -0.0023450642 -0.004420307 0.0034892967 0.001028696 0.00263446 0.0015565893 0.0029797582 0.0044516474 0.0012414593
刀型骨架 -0.0047809756 0.0010912799 0.0033511922 -0.00467022 -0.0025505712 -0.0034699342 -0.0016225572 0.00030843235 0.0028456405 -0.0025590954 0.002831219 -0.00311224 8.8126355e-05 0.0015496706 0.0014611344 0.0032513165 -0.004827032 -0.0041621146 -0.0011440442 0.004914631 -0.0010736462 -0.0013813614 -0.0017050403 -0.0007666914 -0.0049174125 -0.0006914674 -0.0034518412 0.004506787 0.0016272261 -0.00043826667 -0.0018921442 0.00018643033 0.0015033352 0.0015935339 -0.00032988645 0.0045524393 -0.0044934847 -0.0044840774 0.0022702517 0.0017457398 -0.0045818267 0.0024308215 -0.003676266 -0.0006775432 0.0020703832 -0.0039850376 0.0031892618 0.004203103 -0.0028856476 -0.0005661105 -0.0045991396 -0.002374372 0.0045440625 -0.0047273827 0.0027173692 0.003944054 -0.0024156524 -0.0028661024 0.00030251066 0.0031409205 -0.0030159317 0.0031602513 0.0023218084 0.0014922356 0.003183788 -0.00363622 -0.0006452683 0.0010058277 0.0003724062 -0.0019105094 0.002324807 -0.0012277962 -0.0012627537 0.0009861495 0.0021930004 0.0031685766 0.00046368557 0.0004922375 0.004883977 -0.0016080908 -0.003271558 0.0048004054 0.0017599383 0.0002325585 -0.003232709 0.0024604786 -0.0015204566 -0.0029734105 0.0008663158 -0.0026880975 0.0028320365 -0.001460794 0.00015331568 -0.0008935908 -0.0012370229 -0.0040243594 0.0025130028 0.0035144868 -0.0044593224 0.0018484894
接地滑轮 -0.003967951 -0.004670596 -0.0013146074 -0.003526103 -0.0011297108 -0.00027036853 0.0046320334 0.0014916525 -0.00021072624 -0.004364319 -0.0016434258 -0.0007795575 -0.004161795 0.0026534318 8.14651e-05 -0.0046107857 0.0019541075 0.0011334253 -0.0012325486 -0.0011700558 -0.0018753292 0.001077306 0.0002851798 0.0031127445 -0.0012554111 -0.00428447 -0.0038178116 -0.004416488 -0.0005842667 -0.002855461 0.0030238163 0.0045970604 0.004961728 -0.00068171404 0.004844702 0.0018390211 0.0009849174 0.00046390644 -0.0012457566 0.0020590918 -0.003168591 0.0034813604 -0.003700286 0.004571096 0.0031186943 -0.0016726912 0.00043309733 0.00081787 0.0042061955 -0.0021185589 0.004471899 0.0025468306 0.0012540766 -0.0014857674 -0.0041211825 0.0006349935 -0.0022354857 0.00028379465 0.003582926 0.0028820462 -0.0036663795 -0.0009807445 -0.00429727 0.0016550098 -0.0006642299 -0.00011957176 -0.004296751 0.0023484027 0.0027308236 -0.003877909 0.0008192677 -0.004773501 -0.004562918 -0.0008264104 0.0011897434 0.0021205563 -0.001432948 -0.00049508264 -0.00022685777 -0.00094640045 -0.0012396881 -0.0012670862 0.0032277207 0.004641485 -0.0007830168 0.0032994004 0.0018599959 0.00012599144 0.0014803376 0.0025226478 -0.00095822435 0.0036783866 -0.0032306316 0.0005219363 0.0036002442 -2.9572111e-05 -0.002449761 -0.0011059075 0.00027335202 -0.0033949045
推块 -0.0034852566 0.0008721413 -0.0037569369 -0.0005374386 -0.0015214958 0.000820999 0.003532051 0.002139666 0.0003510506 0.0029807077 -0.0049009323 0.0014400656 0.003273323 0.001239026 0.004639179 -0.00055488537 -0.0035932509 -0.0038250452 -0.0033689544 -0.00035423748 0.0030349225 -0.0026640699 -0.0039376835 -0.0019726753 -0.0001551021 -0.0024876986 0.00020862324 -0.0020492547 -0.00388858 -0.0012709827 0.0038831457 -0.00027380255 0.0016854135 -0.0010658553 0.0005936311 0.002595809 -0.0013514126 0.0006026274 -0.0049121035 -0.003345089 -0.0040734312 -0.0027641912 -0.0006111098 0.0022838144 0.0014338708 -0.004352947 -0.0018223822 -0.00030033564 0.002319682 0.0009827508 0.003353019 0.004722926 0.0043232287 0.0027971051 -0.00013681198 -0.002507678 0.00087275985 0.0022258225 -0.0010097369 0.0012471355 -0.0042547155 -0.0027942345 -0.0010935882 0.0035188838 -0.0033166704 4.6429974e-05 -0.0049823322 0.0007684175 0.0009856195 -0.002882223 -0.004751008 0.001197739 -0.00047603966 0.002452267 0.0010465767 -0.0031380188 0.0035737213 -0.0023799473 0.00071817177 -0.0022890994 -0.0036245622 -0.0047184867 -0.004781506 0.0026511357 -0.00017087227 -0.002818615 -0.0015434145 -0.0026478234 0.00020722975 -0.0034016033 -0.0023390297 0.0015483703 -0.0037681756 8.192219e-05 0.004207791 0.0030212065 0.002737793 0.00072856405 -0.003523707 0.0030188935
充电槽 3.569678e-05 0.0010250544 -0.00057995395 0.002235347 -0.0033322661 0.0020986996 -0.0026160437 0.0032951063 0.004050717 -0.0019218634 0.0033895636 -0.0029638521 -0.0017758452 0.003845754 -0.003970648 0.004832257 0.0046897605 -0.0048202253 -0.0041910466 0.0037105584 0.0034655167 -0.00199651 -0.003499522 -0.0036175617 0.0048497817 0.0025088342 0.0012604768 0.0020980786 -0.0005113974 -0.00045278468 9.2796705e-05 -0.0035467676 0.0025845496 0.0022272267 -0.004663105 0.0021005748 0.002168991 0.0043597897 0.0012896884 0.0009615161 -0.0013569405 -0.0011547321 0.0012410039 -0.0040004626 -0.0020245025 0.004888031 0.0008773187 0.0039110784 -0.0030317227 0.003562918 0.0004574023 -0.0028179735 0.0009000335 -0.00030465846 0.003875922 -0.0002450237 -0.0012156229 0.0028569421 -0.003878917 -0.00015546047 -0.0045373696 -0.000695032 -0.004231383 -0.0011195884 -0.004055463 0.0007396764 0.001367865 0.0015468074 -0.00497689 -0.003373916 -0.004029162 -0.0035540028 0.0032579922 -0.002273837 0.0024901056 -0.0014303919 0.0033272856 -0.0028572392 -0.0006135906 0.001315074 -0.003057003 0.0015578882 -0.00022105346 -0.004494353 0.0022079658 -0.00096791104 -0.0032166592 0.004598501 -0.0041895555 0.0041847727 -0.0032357108 0.003497084 0.00052045187 0.0026066191 0.00054279115 0.0026704834 0.0012635969 -0.0011362982 -0.001926511 9.021113e-05
支块 0.0021281878 -0.002848213 0.0019933435 -0.00017957177 0.00090658804 -0.0006284369 0.0019499705 0.0045051896 -0.0016928117 0.0028416356 0.0019395525 -0.0022328447 0.0036281825 0.0014281345 -0.00478922 0.00095234375 -0.00021145561 -0.001839216 -0.0043701953 -0.0046116635 -0.002273591 0.002068322 0.0020679678 -0.0044866116 -0.0042939186 -0.00060477393 -0.003984213 0.002989369 0.00022823598 -0.0035245842 0.0048935297 -0.0008678151 -0.0013650432 0.00095196324 -0.00079116836 -0.0028519325 -0.0028959936 0.0031065803 -0.00467499 0.00013894707 -0.0046274364 0.0032176173 -0.0035505416 -0.00063869846 0.0025120282 0.0036403178 0.0043641147 -0.003708616 -0.0032793116 0.0018458264 -0.0033788814 -0.0006102867 -0.0028375392 -0.002461472 0.0013121663 0.0009950958 -0.0034883113 0.00070050743 -0.0042541754 -0.0016435611 -0.00045589593 0.004245007 -0.0004187355 0.00092070655 0.0010338613 -0.004647069 -0.0001846102 0.0028596208 -0.004191979 -0.0035736584 -0.0019188016 0.0032775435 0.002346689 -0.0036994778 -0.0030068206 0.00092084106 0.00047302034 -0.004932733 -0.0017609069 0.0027475907 -0.0043198783 -0.004380819 0.0008400451 -0.0012013362 0.00438401 -0.0040433835 -0.0025955476 0.0015352403 -0.003321312 0.0021776534 0.002741513 0.0023018203 0.0019279392 -0.0040214537 0.004887611 0.0043016835 0.001451655 -0.0012555933 -0.0019489297 0.00085344043
螺状杆 -0.0026514411 -0.0038118549 -0.0032574981 0.002326408 0.002286866 -6.355208e-06 -0.0008466371 -0.0021396074 0.004663041 -0.0005364697 -0.004516018 0.0031882161 0.0047413264 0.003960698 -0.0023161166 0.0015835727 -0.0019351534 -0.0021673143 -0.0043924856 -0.0032162643 -0.0044585625 -0.0014358788 -0.0036758324 0.000345744 0.0034831155 -0.000116940995 -0.0037110937 -0.0031541495 -0.0006871394 -0.0014829854 0.0042837667 0.003926912 -0.000594022 -0.004902977 0.0005502308 -0.0020469353 0.0027703857 0.00067240995 -0.002168178 0.0034942664 -0.0003641106 -0.0049471133 0.0034444223 -0.002548315 0.003745662 -0.0047344435 -0.0018947687 0.0033935993 -0.0005993564 0.0011709477 0.0039989143 -0.0036430266 0.0045342026 -0.0028237402 -0.00016374876 -0.0030125561 0.0041218987 0.004658495 -0.004151616 0.003309131 -0.004489738 0.0007904413 -0.0027264517 -0.0026687912 -0.0042874822 -0.0006994244 -0.003188678 0.00081580394 0.0010226837 -0.002395772 0.0041023865 -0.002863754 -0.0031323165 0.0035518191 -0.0002590315 -0.003991933 -0.0039873654 0.0009601321 -0.0013032205 0.0002667969 -0.00010968749 0.0031901423 -0.00182678 -0.0021991676 0.0031194428 0.0035210352 -0.0016013709 -0.0041367146 0.0034887008 -0.0043783346 -0.00042260945 -0.0032678484 -0.0025451826 -0.002336553 -0.0030592077 0.001060168 0.0031441625 -0.002002186 0.0028703443 -0.0010623768
联电柄 -0.0039570676 -0.002591761 -5.2560175e-05 -0.0029715537 0.0027740116 0.00094773836 -0.0015948534 -0.0032874984 0.00042673716 0.004486861 -0.0013340164 -0.003996838 0.0017269701 -0.0020663291 -0.004730216 0.00028107088 -0.004971427 -0.0022731924 -7.0552082e-06 -0.003399815 0.0031819867 0.004842009 -0.0026288824 -0.0026405822 -0.0007349478 0.0044381255 -0.0021891259 0.0019826998 0.001961043 0.0032271678 0.003561424 -0.0012256375 0.0029385425 -0.0036885354 0.0041361097 0.0035887498 0.0019061327 0.001316059 -0.0015796737 -0.002435379 0.0041822507 0.004749252 -0.0017885343 0.0023238524 0.00089570775 0.002728537 -0.0009517538 -0.0035073345 -0.0014808854 0.0037427584 0.003142927 -0.0044906554 -0.002701501 0.0018607179 0.0002135002 0.002053891 0.0003409363 0.0017210714 0.0018233763 -0.0041052806 0.004997951 -0.0014054294 -0.0007670797 -0.00071839406 0.00077736273 0.0011385797 -0.002360726 -0.0010204948 0.0006984384 -0.0035801034 0.0025788532 -0.00044475732 -0.0042445525 -0.00083504536 -0.0027073827 -0.0022552197 -0.00027018326 0.00088596775 -0.003987284 0.0021553875 0.0040601725 0.0023078097 0.0014574442 0.0049853586 0.004164115 -0.0022845783 0.0047445158 0.0038375345 0.0011912107 -0.0029580325 -0.004687445 0.0014067357 0.00052415155 -0.0022723638 0.0040639252 0.0012002944 -0.0042016045 -0.0026110178 0.004459101 0.003252014
下滑接块 0.00021190949 0.0010474606 0.004395903 -0.0029376126 -0.0030845888 0.0040361667 -0.002235111 0.0041747754 0.0019351438 0.0027723745 -0.0022079777 -0.001558239 0.0048927725 -0.0011874835 0.00041263085 -0.000442966 -0.0007033589 0.0025412068 0.002411423 0.004615238 -0.00015194455 0.00035449755 -0.0018442956 0.0011341837 -0.0028599217 -0.0035827577 0.0019068449 0.004155224 -0.004238073 -0.0025589375 -0.00046055854 0.002675987 0.0025517943 -0.0041117133 0.003430858 0.0029250775 -0.0005014289 0.0021239046 -0.0009656323 -2.386529e-05 -0.0009100599 -0.0021603103 -0.0019239904 -0.0005646161 -0.0026575313 -0.004011008 -0.0039580786 0.0025510425 0.0017457092 0.00081529893 0.0018722557 -0.0035550839 0.0031327682 -0.004105002 -0.0013251721 0.004087423 0.0026067665 0.003499837 0.004895684 0.0049067405 0.0041629565 -0.0040523773 0.0018752444 -0.004476067 -0.004746886 9.1616115e-05 -0.0004643263 -0.004595299 -0.0010086342 0.00470282 0.0043735313 -0.0002221352 0.0047248397 -0.0031069003 -0.0021084803 0.0004975379 0.004720359 0.0028661015 0.003825336 0.0041945726 0.0012843338 0.0034351253 -0.0024383091 0.0004484573 -0.0027032008 0.0027443112 -0.0011465432 0.0025953022 0.0022980126 0.0042573605 -0.0044830125 -0.003260908 0.0007154531 0.004688324 -0.0012976053 0.0015044851 -0.0029724818 0.0006875733 0.00033623146 0.0033984357
滑移板 0.0042769895 0.0041659614 0.0008453187 0.0031852536 -0.004828145 0.0043080873 0.0021314048 -0.00073433534 -0.00059269805 -0.004878895 -0.0012998548 0.0017762507 -0.0040769647 -0.003992567 0.0036653783 -0.00018609613 -0.0035670183 -0.002502627 -0.0030957216 -0.0024960863 0.0009978795 -0.0013493599 0.0041612545 0.0032691848 0.0034386555 -0.004910023 0.0017113443 -0.0012256234 0.002164806 0.0030168355 0.0032872953 0.0027509774 -0.003915888 -0.00043944694 0.0014948543 -0.00032560067 -0.0011152272 0.0019464503 0.004509203 0.00042019566 -0.0048023923 -0.0049019726 0.003314601 0.0015335984 -0.0007072029 -0.0025048868 -0.0045848503 -0.0018139435 -0.00021822148 -0.0023122071 0.00036327628 0.0045463545 -0.003167777 0.0047555366 -0.00021572241 -0.00053003733 0.0031493425 0.0006519755 -0.00029814214 0.002973862 0.00051832653 0.0048969523 -0.0015833122 0.0023319472 -0.0010610719 0.001488151 0.0020172775 -0.0042530447 -0.0044066003 0.0021717963 -0.0010515663 -0.0023154782 0.002921204 -0.00090511603 0.0017712676 -0.004807112 -0.0030264326 0.0004396645 -0.0010217723 -0.004765452 0.0014925803 -4.4820383e-05 0.0043542557 8.008296e-05 0.0011796922 0.003786706 0.0014158558 0.0040211086 0.0045836777 0.0026799934 0.0046944343 0.0037241809 0.00073150237 -0.00063580595 0.0043186545 -0.0046929168 -0.00040985688 -0.0024519914 -0.0016680566 -0.0039846823
霍尔传感器 -0.003700032 0.0040198676 0.0016322539 -0.0042117136 0.0035265114 0.002699774 -0.0029709302 0.004017702 0.0025070435 0.0044925776 -0.00443269 -0.0008796936 0.00487656 0.0011648792 -0.0026481003 -0.0043776706 -0.004210267 -9.783728e-05 0.0049652155 0.0037368557 0.0027943694 0.00013997067 0.00017173289 0.003960776 0.0014983106 -0.0035466834 -0.0045526167 -0.0035576422 -0.00031692194 -0.0012548675 0.0019035487 -0.00013666648 0.0021979627 0.0046591517 0.003961537 -0.0026408026 -0.0009081554 -0.0041619595 0.0015732399 0.004498317 -0.0041787107 0.001946538 -0.0026943528 0.00093427114 -0.00037420096 0.001624502 -0.0012608021 -0.003608234 -0.0009535601 0.0018433413 -0.0022023187 2.550848e-05 0.0048137875 -0.003752126 0.004841701 -0.0036133046 -0.003002038 0.0011400692 -0.0024166817 -0.0030603034 -0.003172038 -0.002294132 -0.0037870125 -0.003833224 0.0010978346 0.0025381907 -0.00019935 0.004388326 0.0036394515 -0.0014261395 -0.0017735354 0.00028765269 0.0031603093 -0.00010565903 -0.00017590911 0.0022948887 -0.0009631341 0.0017127659 -0.00012688474 0.0015987162 0.0042431294 0.0034310243 0.00015165407 -0.004402608 -0.00435205 -0.001675946 0.0013079618 -0.00028994467 0.0009467274 0.0017158828 -0.00045420785 0.004532963 -9.676806e-05 0.0026377337 -0.004278655 -0.0023708544 -0.000457397 -0.0021817891 0.0034267602 0.002461544
行星轮系 -0.0010695972 -0.001330131 0.0015192006 -0.00021978999 -0.00096826395 0.0002060661 0.0043705096 0.0028558786 -0.004793625 0.002100397 -0.0013752033 0.0032156876 0.0005976315 0.00084553624 0.00066583883 -0.001191992 -0.00337492 0.004075229 -0.002811197 -0.004629516 -0.004282405 -0.0037911772 -0.0025397402 0.0008911898 0.0032624924 -9.415558e-05 -0.00240958 0.0035042546 0.0034561642 -0.0024251903 0.0027390253 0.0011352693 -0.0039011035 0.0013541791 -0.0017504167 0.0028809858 -0.0011248785 0.0036761512 -0.0045062606 -0.0036361474 -0.002306859 0.004317752 -0.0027411717 0.004741162 -0.00096994895 0.002021992 0.0022380583 0.0011733661 -0.0039610383 -0.004054578 0.0017880655 0.0005587937 -0.0014317478 0.004332975 0.004746254 0.00057842466 0.004289991 0.0006305916 -0.001843698 -0.0037805175 -0.00031361124 -0.0042389506 -0.0017530479 0.0035420838 -0.0046938173 -0.0030585234 0.0003963906 -0.0039671026 0.0025544022 0.001130646 0.0016939084 0.0028166985 0.0038905952 -0.0044077956 -0.0016599637 -0.00035306872 -0.0013404003 -0.0036780569 -0.004772192 -0.001031382 0.0007106229 0.0026836675 0.00034556942 0.0023555143 -0.0027440237 -0.0042370507 -0.004751623 -0.0024427627 0.0023230338 -0.00038887633 -0.0029801368 -0.0027732681 0.001925532 -0.0042859996 0.00013213613 0.0036061623 -0.0025566472 -0.0027612892 -0.0029091479 -0.0029451894
触块 0.0036651702 0.0039424095 -0.004723805 -0.0022916354 0.0002848844 -0.0032129046 -0.00016307918 -0.003879089 0.0045330967 0.002488112 0.004450777 -0.0021066144 0.0010767564 0.0005878911 0.0043756715 0.001973735 0.0043936223 -0.0005034058 0.0026873068 -0.0036078962 -0.0012863566 -0.0036342198 0.0040830527 -8.139158e-05 0.0022912421 -0.0003988233 0.0030293707 -0.004593578 -0.0016809648 0.004225174 -0.003746353 0.00067330746 -0.00091141195 0.0019085812 -0.0034303488 -0.0040524923 0.0042565623 0.004409928 -0.0007470917 0.0046287896 -0.0043653264 0.0032419958 -0.0048605413 0.0008075622 0.0020235118 0.00075308006 -0.00031100726 -0.0044054883 -0.0027487571 -0.0019106908 -0.001902464 0.0038816014 -0.000315214 -0.0020322774 0.0047709686 0.0030974406 0.00047067893 0.0014386687 0.00047346723 -0.003110477 0.00023230628 0.004379691 0.0020290464 0.0022277758 -0.004344214 0.0030158858 -0.00041113683 0.0018000972 -0.0035133262 0.0031357056 0.004564752 -0.0025913902 0.0045755277 -0.0034144863 0.0032434012 0.0034674087 -0.0008510583 0.0020114426 0.0033311858 -0.001035969 -0.0004433366 -0.00106376 -0.004847041 0.0035447923 0.0014606926 0.0048824134 0.0017836026 -0.00075348484 -0.003346359 0.0040926402 0.0022535762 0.0042327247 -0.004131075 0.0013341061 -0.0047355318 0.0011729 0.002635639 -0.0022911432 -0.0025160622 0.0016860262
盖腔 0.0021505868 0.00395925 0.0008471834 0.0042346935 -0.004678343 -0.0043053976 0.004864985 0.0038165024 0.0005616943 6.497577e-05 -0.0023799243 0.0019177932 -0.0042440137 -0.0047597783 -0.0045862473 0.0029195144 0.0033704774 0.004914769 0.00065395737 -0.0045481194 -0.0024218587 0.004606077 -0.00078555173 0.004545021 0.0007529233 -0.004793464 9.910518e-05 0.0010041468 0.0039391997 0.00010383085 -0.0035185239 0.0005550005 0.0005289187 -0.0042849183 -0.0025589727 -0.0029471335 0.0023094923 -0.0007511989 0.0007183181 -0.0036998559 0.0030671968 -0.0041506467 0.000127979 -0.0034605511 -0.0004975346 0.0048319367 -0.00088550185 -0.0023091885 0.0029103637 -0.0034696646 0.00084546336 6.450545e-05 -0.0036845852 -0.0044866325 0.00275321 -0.0039981566 -0.00043905285 0.0017876158 -0.0047489186 -0.0047841216 -0.003338027 0.0049476647 -0.0040209834 0.0014535838 -0.0039313757 0.0010268311 0.0011214187 0.0043104766 -0.004932006 0.00045255132 0.004188472 0.0042225933 -0.0011975437 -1.535863e-05 -0.0035421345 0.00370498 -0.0020150368 0.00290811 0.003905309 -7.2548006e-05 0.004106116 -0.0025644132 -0.0034977978 0.0009875712 -0.0008641524 0.0038544321 -0.000744631 0.0031397105 0.0020116395 -0.0038550624 -0.00029038993 -0.002475501 0.0011326399 0.003180588 0.0014284038 0.0022401095 0.002278934 0.0019634878 -0.0028968868 0.0025554497
旋动杆 0.004026271 -0.0030791725 0.0014082729 -0.0010879334 -0.0037762183 0.0039686277 0.00042608284 -0.00215727 0.0011859926 -0.004153269 -0.0035067943 0.0035365957 0.00021838516 0.0046911696 0.0009016353 0.0026929497 0.00031614953 -9.356753e-05 0.0018515558 -0.00078621437 -0.0024358355 -0.0039791167 -0.0012541943 0.004188423 0.00092913327 -0.00033166577 0.0029852595 0.0049142023 -0.0042253793 -0.00051238947 0.0023612261 0.0036256595 0.0008618957 -0.004791297 -0.003123715 0.0031487953 0.0015638144 0.0033601196 -0.002390369 0.00470289 -0.0014891278 0.0038685657 -0.0029461524 0.0041926266 -0.0012188005 -0.004059752 0.004456821 -0.00098483 0.0009338162 -0.0017459202 -0.0045924257 0.0028668514 -0.002366786 -0.0038746053 -0.0043950942 0.0041464497 0.0040757125 -0.0032391418 0.004754959 -0.0016956137 0.0013767921 0.0027894673 -0.0045803264 0.00019766958 0.0017480374 -0.0034009977 -0.003719513 -0.0046280553 0.003211453 -0.001078267 -0.0040679188 0.0018383673 -0.002752317 0.0027935558 0.0035903913 -0.0039005075 0.0036915746 0.0016743192 -0.003811961 -0.004547977 0.0036899315 0.00044257139 -0.0015232012 0.00048759894 0.00087627856 -0.0015341912 -0.0020080302 -0.0023257125 -0.004357404 0.004157647 -0.0027717755 -0.0017372734 0.0038562638 0.0011044564 -0.0025819934 0.0046668635 0.0049417433 -0.004671431 0.0016962953 -0.0035587184
行星轮 -0.0015679452 0.0007454672 -0.0028882646 0.00026195715 0.004700761 -0.0023962823 -0.00024972812 -0.0030234559 0.0013356202 -0.00017282234 -0.0027929244 -0.0015812349 -0.001982496 0.003769157 -0.004372042 -0.004758502 -0.0032821933 -0.003808657 -0.004731007 0.0025311464 0.0009173894 -0.00043557654 -0.0036275098 0.0006162114 -0.004961121 0.0021268476 -0.00058955804 0.001969441 0.0031981815 -0.00402692 0.002249603 -0.0038191273 0.0006274313 -0.0032237135 1.2708091e-05 -0.0022668103 0.002796701 -0.0005717393 0.0015498404 0.0025678496 0.0007739929 -0.00050366943 0.00097095635 0.00019681737 -0.003865738 -0.0033138413 0.003938432 0.00047926157 0.0008588851 0.0009780115 0.0027623526 -0.0031448754 -0.002724482 0.00034309525 -0.004469242 0.0034297812 0.00085472484 -0.0010768629 -0.003773555 -0.0018179737 -0.0024921044 -0.004775114 -0.002969297 -0.003678215 0.0028296153 -0.0037256775 0.004668368 -0.0037566898 -0.0033788416 0.00022583808 -0.00015670083 -0.0005842555 -0.0032644868 0.0013018824 -0.001132496 -0.0029395705 0.0017215026 -0.0042754114 -0.0013881685 0.000103272265 -0.0008894413 0.0015245405 0.0023825606 0.0033528812 0.0048078215 0.0043082014 -0.0037965302 0.00035632186 -0.004339497 -0.0011466389 -0.004126776 -0.0048427647 -0.0016431438 -0.0019681489 -0.0027656327 -0.00041542182 0.0025630463 0.0039756997 -0.0026579862 -0.004582551
螺形杆 0.00439238 0.0004343409 0.0031061377 -0.0025713549 0.00047924495 0.0010153912 0.004451898 0.00014570188 -0.00435716 -0.0047021876 0.0025748843 -0.004094508 -0.0018121635 0.0044262004 0.00027371375 0.0008829843 -0.004211357 -0.0037583318 0.0048462995 -0.0030736309 -0.0035670039 -0.0024928208 0.0031944704 -0.0035969072 0.0038005696 0.0009608171 0.0024627652 -0.003955996 -0.004309716 -0.0030558943 0.0030691244 0.0046269973 -0.0032581154 -0.0026897264 0.0029507123 0.0006388834 0.0038786854 0.0015437772 0.0020037715 0.0009842569 0.00010801947 0.00063695275 0.0032867088 -0.001682887 -0.0031882857 0.003256613 0.0016764727 -0.004776804 -0.0014885113 0.0049357237 0.0030656573 -0.00061646174 0.002597106 0.0024443157 0.002672387 0.0026629283 -0.0023585476 0.0011312076 -0.0006057842 0.0033136513 0.0025321452 0.0029419104 0.0008809749 -0.0024469825 -0.004603529 -0.0028854134 -0.003699166 -0.00477803 -0.0005565176 0.00013040048 -0.0046605994 0.00041184656 -0.0007572369 0.00083693356 0.0047608707 -0.0025376712 0.0037441042 0.004797499 0.0047363853 0.004307986 0.0004188499 -5.6195506e-05 -0.0028536809 0.0036050843 -0.0036149707 -0.0018149198 -0.0032405215 0.0039683175 0.00264873 -0.004012118 -0.0030274624 -0.0046996786 -0.004177284 -0.0027937538 -0.0037606943 -0.004961078 -0.0037779084 0.004872226 0.0042263777 -0.0010970322
主动齿轮 0.00436033 0.004483473 -0.0010268787 0.0024434798 0.003411729 0.0042620227 -0.0016994575 -0.0010513831 0.0043087476 -0.0013700378 0.0024572064 0.0020696863 0.0042590457 -0.002414107 0.0017477754 -0.0010535272 0.0020405517 -0.004078949 0.0048034573 -0.0038042227 0.0030031546 0.004414898 0.0017200056 -0.002556472 4.1699666e-05 0.00034506383 0.0038704835 0.0020358872 -0.0012130645 -0.004804023 -0.0035912134 -0.00030962352 0.0018596975 -0.004452224 -0.0041957228 0.004900464 0.0025348763 0.0005147275 0.003243874 -0.0006881964 -0.0043526157 0.0048341556 -8.497886e-05 0.0026973868 1.13929245e-05 -0.0045937984 -0.004083276 -0.0018351458 0.0015146461 0.004293353 -0.0018601822 0.0008406324 0.0011930817 -0.0027811336 0.004078684 0.0021897757 0.0018400486 0.0030526293 0.0021004085 0.0032738622 -0.003342439 -0.0036813654 -0.0010189986 0.0012948975 0.001312528 -0.00018231361 0.00083502574 -0.0044430853 -0.004108603 0.0034772642 0.0029531 -0.0027974553 -0.0005159267 0.0024448908 -0.0022921127 -0.004693544 -0.0005446602 0.0043104133 -0.0030443938 0.0009935966 0.00032643156 -0.0021938442 0.00073631067 -0.0034343032 0.0003932937 -0.004816119 0.0023197683 -0.0044357185 0.0012060099 -0.001194649 0.00049239374 -0.0015547908 -0.0029832886 0.004892745 0.0037056613 -0.00056203484 -0.00029586552 -0.002766272 0.003097738 0.0038423028
智能充电模块 -0.0024919794 -0.0023279388 0.0008487133 -0.0037500302 0.0031428705 0.0048182094 -0.00412546 -0.0024321296 -0.0041728755 -0.002700371 0.00030164295 0.0017244804 0.00341287 -0.0032336453 0.0039646532 -0.0042002755 0.0020128624 -0.00079321966 -0.0029860178 0.0018512813 -0.0023640469 0.0032573924 -0.0020204806 0.0018890192 0.0035139986 0.0028222064 0.0033180644 0.0045210384 0.0015512034 -0.0027937917 0.0012245524 0.0036194217 -0.0046074493 0.004718888 0.0021199337 0.0020442868 -0.004892542 -0.0036853857 0.0041846554 0.0027607752 -0.0013900108 -0.0025752431 0.0039766976 0.00029981323 0.001152056 -0.00024738442 0.0019350558 0.0016547253 0.0028686104 0.003121019 0.0026156711 -0.0020025757 0.0007039577 0.0013622474 0.0025443318 -0.0037293795 -0.0039221128 0.004223788 -0.003964942 0.00076389435 -0.0017570814 0.00047131034 -0.004462935 -0.0031306578 -0.003700242 -0.0028259829 0.0022481945 0.004110393 0.0006456756 -0.0031069205 -0.003501063 -0.0029297352 0.003713822 0.0022206542 0.0037064983 -0.0024544224 0.002893664 0.0014867976 -0.0024099539 0.0047295317 0.0021693616 -0.0027103897 0.003982714 -0.003033102 -0.003972006 0.0016077108 -0.002517166 0.00483557 0.0026220754 -0.0020708444 -0.0040255133 0.0014524815 -0.001229833 -0.0030824835 -0.0041758646 -0.00030990137 -0.0020345321 -0.0014818242 0.0018182363 -0.0040987786
联电凹腔 -0.0011302875 -0.00077152 0.0012681164 0.0031480864 -0.0035902732 -0.0022510118 0.001709937 -0.001972219 0.004784705 -0.0039238688 0.004228116 -0.0030045884 -0.000689458 -0.0014159721 0.004298147 0.00032943382 -0.0047041834 0.0017287534 -0.0028774347 0.0009813891 -0.0027784077 0.0004891421 0.0036343017 0.0046633347 -0.0049953074 0.004936971 -0.0034223725 0.0046200277 0.0023868904 -0.00080269255 -0.0023067824 -0.0019347152 -0.003169212 0.0041557844 0.0036421155 -0.0011483676 -0.003391807 -0.0036566933 -0.004744289 0.003651707 0.0017771157 -0.0048807957 0.0018781908 -0.0019093095 -0.00087723933 -0.0021367818 -0.0020812845 -0.0006304176 0.0042311694 -0.0008336407 -0.0020743557 0.0043328484 0.0003722801 -0.004848862 -0.0022396622 -0.0018089298 0.00062760414 0.003793095 -0.0037851613 0.0019451296 0.0007814161 0.0020387045 -0.0038845912 -0.002929352 0.003382975 0.0009181089 -0.0034396197 0.004610836 0.0023695393 0.0010374772 -0.003471274 -0.000106743726 -0.002000844 -0.000507515 -0.0033057765 0.0023077128 0.00021116705 -0.0030711796 -0.00049891655 -0.003827938 -0.0018715422 0.00371493 0.0038665917 -0.0024002276 0.00431554 0.0021893291 -0.0025090934 0.0009874271 0.002466987 0.0043654474 -0.0022630356 0.0018404336 0.0048676184 0.0038780097 0.0040622433 -0.0029628542 -0.0030099908 -0.0038745767 0.0037750874 -0.0027564147
容槽 -0.0036516674 -0.0028861482 0.002746231 -0.0011092066 0.00068825146 0.0017383528 -0.00013209839 0.00047514171 0.00061872037 0.0036508543 0.00094483484 0.0010192839 0.0044242707 -0.0025554358 -0.004892722 -0.0034167485 -0.002786762 -0.0006857795 -0.0041256268 -0.0019253985 -0.0023920785 -0.00066234736 -6.3590174e-05 -0.0026359872 -0.00059195654 -0.0046445876 0.0035168026 0.0004697617 -0.002570418 -0.0044700336 -0.00055773376 -0.0019133426 0.004694217 0.003833761 -0.0019526678 -0.0019183905 0.0020532373 -0.0017386848 -0.0029184758 -0.0018935328 0.0037965367 0.004874674 -0.00067736616 -0.0024296388 0.004857553 -0.002706534 0.003229683 0.003938966 -9.684179e-05 0.0019718918 0.0016080926 -0.0002819592 -0.0020534461 -0.0008510968 0.0011831651 -0.0030036466 -0.0008937262 -0.0017874043 -0.0026993894 -0.00028537074 -0.0006698008 -0.0008281606 0.0008126309 0.0011934863 -0.004046361 0.0008745293 0.0038760693 0.00040332042 0.0016400137 -0.004554356 0.0017261481 -0.0015699416 0.0033072375 -0.0012776811 -0.0027609272 -0.0022141784 -0.0044818823 0.0044116997 -0.0046448917 -0.00055118813 -0.0010188567 0.0006735489 -0.0046914164 -0.0012421769 -0.0030325488 0.0028396286 -0.00094823516 -0.0017978081 -0.0044273604 -0.0035114512 0.0045985286 -0.0043467404 0.0041451906 -0.0027500344 -0.00029902466 0.004446651 0.0005149179 -0.0016185271 -0.0022510802 -0.004116509
插头绝缘体 -0.0028782424 -0.0011106377 -0.0036561848 0.0039231307 0.0026503738 0.0021981415 0.004502293 -0.0017349046 -0.0038263341 0.004272768 0.0009538082 0.00039473645 -0.0030621642 -0.0023794118 -0.0015935589 0.0024415448 0.0031061294 -0.0010781182 -0.00059354166 -0.0028235256 -0.0023718858 0.003404849 -0.0023696232 0.0029751176 -0.004602397 -0.0009502793 0.0034233923 0.002198827 -0.003989613 0.0023080057 -0.0019359986 0.0036517666 0.00083531137 -0.002622028 0.0009412447 0.0040874467 0.002426752 -0.0048809582 0.002835671 -0.0048250747 -0.0040089367 -0.0049614743 -3.398362e-05 -0.00084506616 -0.0048926226 -0.0038802184 -0.0031365748 -0.00015231615 -0.0005734547 -0.0030862247 -0.0031074544 0.0036080428 -0.0036299916 -0.0036234427 -0.0047501856 0.002637455 -7.887659e-05 0.002342975 0.0034517457 -0.0011761341 0.0035787781 -0.00019121819 0.004099776 0.00018391333 0.0041683214 -0.0019915907 0.00015801776 -0.00010391146 0.0020770398 -0.0010243955 0.0036483884 -0.0013339045 0.0019387852 -0.0038042276 0.0012033081 0.0016450584 0.0036414568 0.0007489708 -0.002530697 0.003231589 -0.0016969439 0.0011470244 0.0010365284 0.0027481085 0.0016451667 -0.001292357 -0.0031440358 0.0005829859 0.0028049878 0.0013642393 -0.0042434647 -0.0014588044 -0.00056950987 -0.0019283711 0.0047889226 -0.00088435545 0.0049748993 -0.0029779098 9.828431e-05 0.004557928
充电枪体 -0.0030806796 -0.002291239 -0.0021889259 -0.0036770788 0.0010102456 -0.0038010124 -0.0010522264 -0.0007149013 -0.004616842 -0.0014380786 0.0017213422 -0.003037035 -0.0029579077 -0.0009789731 -0.0040409034 0.00035892215 0.0025392803 0.0024613296 0.0013803273 0.0033535308 -0.0035844652 -0.004208897 0.0006212002 0.0046988316 -0.0036282218 -0.0010684844 -0.0024136486 0.0039049338 -0.0012001266 -0.00076141866 -0.0031703378 0.003311871 0.0017746466 0.0019785517 0.003944518 -0.0013122687 0.0039649713 0.0021585997 0.0028532862 0.004171645 -0.0049016415 -0.0023594205 0.00100806 -0.00069122895 -0.0038218193 -0.0006525417 0.0023582005 -0.0028723176 -0.004485227 -0.0035623577 0.0036100307 -0.0045106704 -0.004017656 -0.0006198657 -0.0042119543 -0.0035066602 -0.0038228456 0.00076262973 -0.00396046 0.0012031901 0.0045834812 0.003187755 -0.0007585454 -0.0035523993 -0.003525086 -0.0033601364 -9.844419e-05 0.00295745 0.0014440083 0.0043610656 -0.0005525759 -0.0013591428 0.0015823194 0.003003416 -0.0033515568 0.000764273 -0.0034197213 -0.0021828164 0.004395221 0.0036141695 0.0011630371 0.004530366 -0.0014887857 -0.0044979793 -0.0049620173 -0.00044288381 -0.0041905516 -0.004867563 -0.004731372 0.0015884453 0.0016178212 0.00059807685 -0.0005978986 0.002823936 0.0035797558 0.0018696686 0.004283349 -0.0009823837 0.0017954435 -0.0032884672
受电控制箱 0.0036357758 -0.0004352307 0.0029654824 0.0014933713 0.001548769 -0.0015769614 -0.0005520159 -0.0009679805 0.0015103292 -0.0039236695 0.0017650375 0.0034420309 0.0031869633 0.0039609056 0.0008103707 0.004717642 0.0008314604 0.001828359 0.0026230337 0.004260386 0.0048260647 0.0047508166 -0.0028076454 -0.0039967326 0.002324604 0.00039257837 0.0043871957 0.0002468185 -0.0049890513 -0.0049283197 -0.0024608497 -0.0008733052 0.0017276092 0.001202439 -0.0020404777 -0.003269846 -0.0025502066 0.0009462387 -0.00046523684 -0.0033839615 -0.0011498252 -0.0041917954 -0.0028350437 -0.0014705661 -0.001007497 -0.0017379777 0.003291733 -0.0046838573 -0.0026257166 -0.0040456215 0.0046414216 -0.0018675437 -0.004800594 -0.00064297346 -0.0005852221 -0.0020332355 0.002933537 -0.0015199031 -0.0038034779 -0.004177006 -0.00354284 -0.001818976 -0.0010120764 -0.001311761 0.0024754729 -0.0028193456 0.0035708633 0.0028456377 -0.0024218033 0.0040991083 0.002930149 -0.0022320533 0.0046940683 0.0017067796 0.0028056842 -0.004361262 0.002626102 -0.0006856771 0.0035290078 0.0034500556 0.0039581903 -0.0030797687 -0.0044388194 -0.00016043743 -0.0026844186 -0.0040075644 0.001693965 -0.0016309089 -0.0039911834 0.0046715173 -0.00012388139 0.0020673468 0.0047872486 0.0023282366 0.00093860616 0.00438007 0.0042296406 -0.0011400668 0.0015179833 0.003627354
装定孔 -0.002023388 0.0037582428 0.0024271803 -0.0045572077 -0.00048689972 0.0012756881 0.0005024271 -0.00042724132 0.0030436986 0.00039734464 0.0035339268 -0.0013945651 -0.0025604744 -0.0043586125 0.0015935284 -0.0029864877 -0.0030980418 -0.0020290825 0.0040996503 -0.0045414427 0.0015427291 -0.0046600527 -0.0038294892 -0.0036063348 -0.0033417966 0.0036770634 -0.0042306944 -0.003264718 0.00020379493 0.003636588 -0.0015896411 -0.0039184312 0.0022034007 -0.00024724175 0.0044099214 0.0027397429 0.0013974746 0.0006866159 -0.0037423824 4.1120293e-05 0.0010468122 0.0037622766 0.004384312 0.004840256 0.000490053 0.0017738943 0.0014595864 -0.0039882264 -0.0017421874 2.8665292e-05 0.0030251944 -0.0002704364 -0.0023187369 0.0029774618 0.004773111 0.0043465197 0.0023845767 -0.002989585 -0.0005514385 -0.00091250107 0.002299798 0.001960376 0.00088819984 -0.0044454644 -0.00030633496 -0.0046643587 0.0044071036 -0.0033054438 -0.0010355881 -0.0018126783 0.0048473366 0.0008357244 0.0010497937 0.00090170506 0.003592637 -0.0013962792 -0.0043060286 0.0045312806 -0.00014473939 -0.0021092198 -0.0047692424 0.003911031 0.0012272769 0.00017065326 0.0038322704 -0.0028936563 0.0016499188 0.0005052648 -0.002027612 0.0014110549 0.0019440213 0.0041535087 0.0031998954 -0.0013726809 -0.0016869777 -0.0006868263 0.0024734454 -0.0008590342 -0.0015701554 -0.0024260327
滑移架 -0.0047450336 0.0005171782 0.001122832 0.0036300945 -0.0024660365 0.0041212025 0.004057792 0.0039912136 -0.0017170343 -0.0020443492 -0.0049797455 0.003958681 -0.0028178906 0.0017602164 0.001311703 -0.0016192006 0.0041977246 -0.00091874547 -0.0032688733 -0.0021287107 -0.0020637817 -0.002609756 -0.0039900127 0.0013518269 0.0022962543 0.0032181481 0.004750818 0.0045486656 -0.0018247796 0.0047951136 -0.004998566 0.0014665864 0.0014366455 -0.000845339 -0.0047502173 0.0010680624 -0.00041336476 0.0040747956 0.004579413 -0.0008030839 -0.0021884358 -0.0029782453 0.0008426693 -0.0013267528 -0.0040623154 0.0010723637 -0.00084678223 0.0045199906 -0.003521745 -0.0042861477 -0.0015680771 -0.00093969033 -0.0029967318 0.002993199 -0.002381859 -0.001115609 0.0048348047 -0.0049066525 0.0037239152 0.002553986 -0.00302783 -0.00026490234 -0.0015636468 -0.0044768164 0.0025196616 -0.00013253864 -0.0011617413 0.004211291 0.0026321579 0.004770015 0.003122037 -0.0007364747 -7.801946e-05 -0.0035198198 -0.0039352104 -0.004294986 0.004722516 -0.0026668455 -0.0048186635 -0.0030381996 -0.0028739478 -0.0049285726 0.0045949533 -0.00052160776 -0.0018897922 0.0029544313 0.0010380049 0.00042180557 -0.0027139105 0.0022670326 -0.004837835 -0.0021587617 -0.0017983486 0.002714372 0.0023677766 -0.002762346 -0.0044612167 -0.00012567075 -0.001790913 -0.0026441785
齿圈制动器 -0.0023200372 0.0044535934 0.0038406914 -0.0012897002 -0.004378311 -0.00041590165 0.00092986575 -0.004286144 -0.004796833 0.0017658977 0.00025067636 0.0013455094 -0.003229464 -0.0006801197 -0.0010229194 -0.0032739965 0.0032942933 -0.0011507522 0.001777959 -0.002747008 0.0030181648 0.0019288675 -0.0023697843 -0.0039443383 0.0005688927 0.0029329758 0.002625474 0.0021610952 -0.0010305387 -0.0039874194 0.0020723664 -0.0031686442 0.0045532985 -0.0025449242 -0.001603186 -0.0023224012 -0.00022411183 0.0023825911 -0.0022783705 -0.0035530697 -0.0002070148 0.0022607127 0.002932007 -0.001956031 -0.00083691295 -0.004995589 0.004551736 -0.0018510447 0.0033027332 -0.0038452838 -0.0012951313 -0.00014479533 0.0035455488 -0.002765612 0.0040104846 -0.0036192788 -0.004046074 -0.0039777155 -0.0037867604 0.0020922776 -0.0019586147 0.0014515616 -0.0013363152 -0.003841134 0.00031885767 0.0016046349 0.0014041832 -0.00017918578 -0.004400606 0.0015445779 -0.0012145822 -0.0044012815 0.0018808488 0.00031209303 -0.0036570004 4.794945e-05 -0.0005676676 0.0045850426 0.004963428 0.0009399118 0.0024008832 0.0024103269 0.004923148 0.0027876245 0.00040088466 -0.00038587244 -0.0036508795 0.00041419003 -0.004551184 0.004701773 -0.0007444024 0.004612354 0.0031414558 0.0017225684 -0.0046835714 -0.0041458136 -0.0024940234 -0.0042250273 -0.004153326 -0.0036179628
